%YAML:1.0
---
opencv_ml_svm:
   format: 3
   svmType: C_SVC
   kernel:
      type: LINEAR
   C: 2.6699999999999999e+00
   term_criteria: { epsilon:1.1920928955078125e-07, iterations:1000 }
   var_count: 64
   class_count: 33
   class_labels: !!opencv-matrix
      rows: 33
      cols: 1
      dt: i
      data: [ 0, 1, 2, 3, 4, 5, 6, 7, 8, 9, 10, 11, 12, 13, 14, 15, 16,
          17, 18, 19, 20, 21, 22, 23, 24, 25, 26, 27, 28, 29, 30, 31, 32 ]
   sv_total: 528
   support_vectors:
      - [ 9.65071958e-05, 6.55790209e-05, 1.02945189e-04, 1.74743007e-04,
          -1.16076728e-04, -1.75701134e-04, -5.63736212e-05,
          -1.23614955e-04, 1.10509551e-04, 9.73814986e-06,
          2.88459396e-05, 2.46160234e-05, 2.77203890e-05,
          -2.67866858e-06, -3.04846108e-05, -7.02057660e-05,
          1.20096214e-04, 6.21031904e-06, 2.34717004e-06, 3.49169241e-05,
          2.72054313e-05, 2.53182807e-05, 1.52087532e-05, 9.65343679e-06,
          -2.74543236e-05, -7.24481433e-05, -7.82456264e-05,
          -7.93827858e-05, 9.74634895e-05, 1.32650830e-05,
          6.44459869e-05, 9.43348186e-06, -1.12107948e-04,
          -8.72632063e-06, 4.78651191e-06, 5.83795700e-05,
          1.17677970e-04, 8.44586393e-05, 7.33578199e-05, 1.41555967e-04,
          -1.03448772e-04, -4.12612144e-06, -2.51904385e-06,
          2.42659576e-06, 4.48050487e-05, 3.20267609e-05, 2.32616549e-05,
          7.05198181e-05, 1.22688783e-04, 2.83511235e-05, 7.49176106e-05,
          2.93493777e-05, -1.95645225e-06, -7.18718184e-06,
          4.05540277e-06, 8.17095424e-05, 6.10261995e-05, 9.20907114e-05,
          4.73588334e-05, 3.60613703e-05, -8.49573553e-05,
          -1.19903845e-04, -5.17114022e-05, -9.68239256e-05 ]
      - [ 4.16648545e-05, 7.34028436e-06, -2.57762076e-05,
          1.93249671e-05, -8.11662085e-06, -5.23002745e-06,
          -1.13157894e-05, 1.79244762e-05, 1.63535406e-05,
          -3.59665537e-05, -4.60994561e-05, 5.12300858e-06,
          1.18221606e-05, -5.24672305e-06, 8.10901554e-07,
          1.40745851e-05, 1.70893090e-05, -2.23618536e-05,
          -1.57283084e-05, -3.22890010e-05, -2.89317541e-05,
          -4.91507080e-06, -4.44323905e-06, 6.36036066e-06,
          -3.57237586e-05, -6.98186996e-05, -3.44731379e-05,
          9.79847755e-06, 1.91026647e-05, 2.30073400e-08, 2.17566467e-05,
          2.75811963e-05, -3.86156935e-05, -2.97438964e-05,
          -2.32922484e-05, 1.97301938e-06, 1.69932755e-05,
          -6.19209050e-06, 1.81796458e-05, 2.73710484e-05,
          -2.77021154e-05, -6.81775637e-05, -1.08322902e-05,
          -1.67955716e-06, -6.61808826e-06, -2.19291014e-05,
          -8.92402295e-06, -2.20914662e-05, 3.44605323e-05,
          -6.89989756e-05, 8.76162721e-06, -6.59954239e-05,
          -6.84763745e-06, 4.70070489e-07, 3.59858086e-06,
          3.61061793e-05, 4.46183658e-05, 1.94960012e-05, 1.61779353e-05,
          -4.47649763e-05, -3.56882883e-05, -1.33662224e-05,
          -8.17606633e-06, 4.50358675e-06 ]
      - [ 1.21668709e-04, 2.58102082e-05, -4.21152399e-05,
          -1.47793646e-04, -1.81128889e-05, -2.01627936e-05,
          -3.02434892e-05, -2.18421173e-05, -3.79673793e-06,
          -3.41193227e-05, -4.40411059e-05, -5.68958312e-05,
          1.77767633e-05, -1.34760626e-06, -3.89254467e-07,
          7.52669075e-05, 8.68521820e-05, 3.39843064e-06, 1.25956001e-06,
          -5.40225983e-06, -2.86756858e-05, -1.11185082e-05,
          -2.52112568e-05, 3.28194765e-05, -3.09935094e-05,
          -1.16910742e-05, -1.04308219e-05, -1.68193276e-06,
          -1.04342107e-04, -4.50710431e-05, 3.99463424e-05,
          1.01425554e-04, -2.55630312e-05, -1.38421765e-05,
          -8.10041911e-06, -4.07117695e-05, 2.67021769e-05,
          -9.91917568e-06, -2.56320413e-06, 9.02760075e-05,
          3.80446691e-05, -5.39544453e-05, -1.06491272e-04,
          -8.42512818e-05, -2.56220246e-05, 8.18372337e-06,
          -2.84455000e-05, 1.25303068e-05, 4.96682042e-05,
          -1.18140943e-05, 3.52123316e-05, 6.75811953e-06,
          -7.40113901e-05, -8.01533024e-05, -5.36748739e-05,
          4.02112819e-05, 2.97292427e-05, -2.98610157e-05,
          6.43016101e-05, 1.24721009e-05, -3.58278339e-05,
          -2.98579175e-06, -2.60616980e-06, -8.69424184e-05 ]
      - [ 1.17518857e-05, 3.16676851e-05, 3.40200058e-05, 5.16951768e-05,
          5.08375297e-06, 3.40775227e-06, 2.03251329e-06, 8.33103149e-06,
          3.69804111e-05, -1.48533363e-04, -6.71576709e-05,
          1.52926059e-05, 1.73651388e-05, -2.01626904e-07,
          -1.04082801e-06, 1.11479540e-06, 7.22113546e-05,
          -4.88806545e-05, -6.26738038e-05, -5.56352679e-05,
          -6.22646767e-05, 1.54266454e-05, 6.43635485e-06,
          9.07691901e-06, -3.80784586e-05, -9.26210269e-05,
          -5.64616639e-05, -1.31463803e-05, -6.80234780e-06,
          7.61629553e-06, 2.04478911e-05, 5.96433092e-05,
          -3.19475985e-05, -1.50091626e-06, 4.78700599e-07,
          6.27803229e-06, 4.81633688e-05, 2.21206137e-05, 3.43752981e-05,
          1.00210687e-04, -4.19105982e-06, -9.67473388e-05,
          -6.09259077e-05, -4.98398958e-06, 4.27279228e-05,
          1.80969782e-05, 9.72023554e-06, 1.18480057e-05, 2.81654739e-05,
          -6.67685981e-06, 3.34979040e-06, -4.56543330e-06,
          -2.06836285e-05, -2.31272916e-05, -2.24115956e-05,
          2.44093608e-05, -1.78678283e-06, 1.76214394e-06,
          -1.07978076e-05, 4.43849285e-06, -8.12208498e-07,
          -5.97816506e-06, -1.14383329e-05, -2.21414957e-05 ]
      - [ 1.00994293e-04, -8.54288464e-06, -1.97562917e-06,
          -1.10364905e-04, -7.06160572e-05, -7.38066183e-06,
          -1.41537639e-05, -2.75090097e-05, 4.74793014e-05,
          3.41911709e-06, 2.82729852e-05, -1.60525342e-05,
          -5.43816532e-05, -4.31255721e-05, -3.64587722e-05,
          1.43047655e-05, 4.37352246e-05, 2.36135088e-06,
          -1.09919247e-05, -8.06625103e-05, -4.25495964e-05,
          2.68923486e-05, 3.44103256e-07, 3.53329815e-05,
          -1.39481199e-05, -1.07711412e-05, -1.34757684e-05,
          1.39975482e-05, -5.85387097e-05, 2.84302905e-06,
          3.67208231e-05, 1.95705434e-05, 4.58609538e-05, 2.47148546e-06,
          -9.95632126e-06, -1.44749778e-04, -7.10892346e-05,
          1.55007892e-05, 2.30550377e-05, 2.30190180e-05, 2.22798863e-05,
          -1.13985034e-05, -2.14428906e-06, -2.69594420e-05,
          -1.53125962e-04, -1.53289693e-05, -4.11468636e-06,
          3.14426034e-05, 4.73571563e-05, 9.13184635e-07, 3.09055358e-05,
          6.73016166e-06, -7.74434284e-06, -2.59916342e-05,
          -2.49310142e-05, -1.53948622e-05, 3.40393558e-06,
          1.14899358e-05, 4.35358525e-05, 1.33414524e-05,
          -9.51051061e-06, -1.15491030e-05, -6.68158873e-06,
          -5.30479956e-05 ]
      - [ 1.29263557e-04, 4.23307938e-05, 2.17065940e-06, 1.32008663e-05,
          1.84333403e-05, 3.98894008e-06, 8.10835445e-07,
          -4.43092576e-05, 2.00307550e-05, 3.30781804e-05,
          8.41829478e-06, -2.91116152e-07, -1.13365437e-04,
          -7.00556848e-05, -4.15156137e-05, -2.03982363e-05,
          7.20220851e-05, -4.74167755e-05, -7.66080266e-05,
          -1.13440743e-04, 6.60903024e-05, -9.98192959e-08,
          4.21088807e-05, 7.48622824e-06, -2.33580431e-05,
          -9.10764538e-06, -6.41298993e-06, -1.40416751e-05,
          -1.60589043e-05, -1.31753759e-05, -6.11335224e-07,
          6.30220820e-05, -4.42288001e-06, 1.33761455e-06,
          3.98466818e-06, -5.03794690e-05, -1.15350347e-04,
          -2.59410990e-05, 9.62470367e-05, 1.42684919e-04,
          7.84689400e-05, -5.73734496e-07, -1.90724973e-06,
          -1.02642916e-04, -1.91615996e-04, -2.00365266e-05,
          2.39435076e-06, 1.84104938e-05, -1.54951977e-05,
          9.26254779e-06, -5.80788992e-06, -7.20763819e-06,
          -8.41736619e-05, -8.78527935e-05, -3.98341253e-05,
          5.37270535e-05, 1.37527582e-06, -4.59155075e-07,
          8.03348576e-06, 3.69605841e-05, -7.93361469e-05,
          -6.63939427e-05, -2.51426591e-05, -1.01251600e-04 ]
      - [ 1.10347341e-04, 2.47726439e-05, 3.14233403e-05,
          -4.81675816e-05, -1.10768699e-04, -1.14757786e-05,
          -6.75703313e-06, -1.36899253e-05, 3.82544422e-05,
          -5.23306553e-05, 1.24911567e-05, 7.11526809e-06,
          8.48695981e-06, 2.24591432e-07, 2.44841885e-06, 3.47455330e-06,
          6.11091964e-05, -4.59580733e-05, -4.06152776e-06,
          8.38914366e-06, 2.35237967e-05, 2.11488914e-05, 5.58553575e-06,
          2.76515002e-05, -3.57153476e-05, -1.05864499e-04,
          -1.52940459e-06, 2.82032670e-05, 7.78843460e-05,
          3.37003185e-05, 4.26975748e-05, 7.98830079e-05, 1.02761587e-05,
          -1.31242050e-04, -5.86626702e-05, -3.26328627e-05,
          9.58425790e-06, 1.48337222e-05, 2.28754616e-05, 1.19864315e-04,
          -1.05455056e-05, -1.14418035e-04, -1.02284303e-05,
          -7.52347773e-07, 2.30755086e-05, 2.79444321e-05,
          1.96074288e-05, 6.27050686e-05, -2.42318292e-05,
          -3.76496973e-05, 2.67955547e-05, 9.05696470e-06,
          8.96197980e-06, -4.12125246e-06, 2.04306730e-07,
          3.80208949e-05, -5.82306711e-05, 3.19401806e-05,
          3.94754861e-05, 4.63431461e-05, 6.86488511e-06,
          -1.04302023e-06, -1.42534944e-07, -2.30550049e-05 ]
      - [ 1.12768692e-04, -2.70147461e-06, -9.43334180e-06,
          -2.31074864e-05, -5.10406317e-05, -4.24032987e-05,
          -9.02986576e-05, -7.07505433e-06, 3.03016782e-06,
          -2.22096060e-05, 1.38562746e-05, 5.21158327e-05,
          -1.45252154e-04, -1.68998260e-04, -1.11026660e-04,
          5.95712190e-05, 9.64252686e-05, -9.60771868e-05,
          -1.52311724e-04, -1.31314097e-04, 8.98379876e-05,
          6.06797721e-06, 2.50328740e-05, 9.34213022e-05,
          -4.24094942e-05, -3.60746890e-05, -3.12035481e-05,
          -1.55630296e-05, 2.19190006e-05, -1.72865984e-05,
          2.14524753e-05, 1.64193134e-05, -1.30122351e-06,
          -1.92927546e-05, -1.90923856e-05, -1.22935424e-04,
          -8.34985112e-05, -2.47946846e-05, 4.52850472e-05,
          2.19013426e-04, 5.78343588e-06, -1.41553683e-04,
          -1.87664991e-04, -2.27487704e-04, -8.48372947e-05,
          -6.91569448e-06, -2.43229042e-05, 5.92135393e-06,
          3.25979709e-05, 1.79644121e-05, 2.47210519e-05,
          -4.35436050e-06, -1.75567693e-04, -1.69396517e-04,
          -9.91570851e-05, 5.70439661e-05, 7.78542017e-06,
          -4.37978542e-06, -1.58884777e-05, 3.22046653e-05,
          -9.89194450e-06, -3.44682339e-05, -5.59851396e-05,
          -9.23803163e-05 ]
      - [ 8.10326164e-05, -9.66081552e-06, 1.41821110e-05,
          6.71170055e-05, -8.73991212e-06, -5.61944835e-05,
          -2.70504188e-05, -8.18377885e-05, 4.55260306e-05,
          -1.93503129e-05, -5.60043154e-05, -9.03960063e-06,
          -2.84021189e-05, -5.86918286e-05, -6.07044094e-05,
          -4.15090608e-06, 1.47676285e-04, 1.29800419e-05,
          -2.08786929e-07, -3.15474317e-05, -1.99798349e-04,
          -2.19965950e-05, 8.12771930e-07, 1.15122930e-05,
          -1.55633152e-05, -2.31434842e-05, -1.14876293e-05,
          -6.24372115e-05, -1.78104587e-04, -6.31601233e-06,
          3.77902106e-05, 1.30653920e-04, 1.45336962e-05, 8.76354761e-07,
          -4.36929184e-07, -6.89842636e-05, 1.73991048e-05,
          3.97164040e-05, 3.51728231e-05, 6.66654087e-05,
          -4.33750756e-05, -8.28394113e-05, -7.80358750e-05,
          -1.07209074e-04, 1.10461428e-04, -7.85368320e-06,
          9.51848688e-06, 6.23147628e-07, 6.28960624e-05, 1.81606974e-05,
          2.99671701e-05, -5.50079403e-06, -7.13546615e-05,
          -6.02674263e-05, -3.59513979e-05, 9.65453219e-05,
          1.17007767e-05, -2.80802647e-06, 3.08294693e-05,
          -1.74523884e-05, -1.90637365e-05, -1.05184915e-06,
          -1.12533746e-06, -5.39526081e-05 ]
      - [ 5.63849680e-05, 1.35574974e-05, 2.64357586e-05, 3.65653759e-05,
          3.52354255e-05, -2.00300565e-05, -4.81742609e-06,
          2.43097238e-05, -5.67666648e-05, -1.20733159e-04,
          1.36985955e-05, 3.18252460e-05, 9.67566211e-06, 2.63935954e-06,
          3.19181299e-06, 6.48245332e-05, 4.05494484e-06,
          -3.02890348e-05, -2.25231870e-05, -9.00036539e-05,
          -1.36214085e-05, 6.33868103e-06, -1.07737069e-05,
          7.42540287e-05, -2.03535601e-05, -7.12808251e-05,
          -6.74218700e-06, -1.81058422e-05, -1.65021538e-05,
          3.60465697e-06, 8.38714368e-06, 5.14145941e-05,
          -1.47627925e-05, -4.91327910e-06, -6.09819654e-06,
          8.87290207e-06, 2.82391447e-05, 2.50988651e-05, 7.22010418e-06,
          1.14813811e-04, 2.98374762e-05, -1.85785520e-05,
          -7.07411436e-06, -7.15390740e-07, 3.91265748e-05,
          1.73033168e-05, -6.28433991e-05, -7.04793565e-05,
          8.19494890e-05, -8.81823965e-08, 1.24432981e-05,
          -3.11768326e-06, -8.19026027e-05, -4.71074818e-05,
          -4.69618171e-05, 2.19750200e-05, 4.81350398e-05,
          -1.24107976e-06, -4.69813472e-07, -1.00743964e-05,
          -2.61488385e-05, -1.14321338e-05, -7.14421476e-05,
          -4.66146048e-05 ]
      - [ 8.98570288e-05, -2.47022599e-05, 7.22520126e-05,
          5.69091681e-05, -4.19131975e-05, 1.20328468e-05,
          7.62020022e-07, -1.14335584e-04, 5.23417402e-05,
          2.41922171e-05, 5.64965194e-05, 8.37098851e-05,
          -2.02920550e-04, -9.15713608e-05, -1.28337109e-04,
          3.57554200e-05, 7.45926154e-05, -8.33043014e-05,
          -9.10092494e-05, -2.37378568e-04, -1.25561573e-05,
          5.28300479e-05, 2.40446698e-05, 3.60326521e-05,
          -7.52304004e-07, -8.14772193e-06, 4.83714643e-07,
          -7.82499046e-05, -1.47318838e-06, -4.91489835e-08,
          1.51117740e-06, 2.86342820e-05, -2.69575921e-05,
          -5.57768471e-05, -5.76189232e-05, -7.54023358e-06,
          4.86041572e-05, 4.55322806e-05, 3.44779437e-05, 1.55005779e-04,
          -8.47691190e-05, -9.53570270e-05, -2.00652299e-04,
          -2.35715430e-04, 2.15867258e-05, -2.59282897e-05,
          -3.10198193e-05, 4.31195876e-05, 7.65439254e-05,
          -1.71858574e-05, 5.91163734e-05, 5.80821143e-05,
          -1.76346046e-04, -1.41832177e-04, -9.16579011e-05,
          1.03369333e-04, -1.76966091e-06, 2.12024424e-05,
          -1.00587895e-05, -4.49137879e-05, 7.61685851e-06,
          -4.21394798e-05, -1.06209613e-04, -1.34802787e-04 ]
      - [ 8.61663357e-05, -6.80927842e-05, -2.62925914e-05,
          -4.39507721e-06, -3.19136561e-05, 3.66807399e-06,
          2.43562886e-06, -3.87067521e-05, 8.95727135e-05,
          2.90829867e-05, 6.20151986e-05, -6.39239370e-05,
          -5.33104503e-05, -4.38470852e-06, 3.78321965e-06,
          -4.66377605e-05, -7.00790770e-05, -1.13261949e-05,
          -5.85706289e-07, 6.83861663e-06, -1.12223242e-04,
          5.63149588e-05, 1.07204221e-04, -6.12065851e-05,
          1.42032441e-04, 6.91300784e-07, -1.98462672e-07,
          1.38606470e-06, 6.05673740e-05, -8.66218397e-05,
          7.84839358e-05, -1.38539563e-05, -5.45198927e-05,
          -3.75076743e-05, -2.69876127e-05, -1.81897194e-04,
          -1.23374964e-04, 5.52621759e-06, 9.84587314e-05,
          2.78060616e-04, 7.10397726e-05, 2.09278051e-06, 2.00407342e-07,
          1.19236425e-08, -2.57331249e-05, -4.89162958e-05,
          -4.69390670e-06, 5.39305947e-05, 6.53630309e-07,
          -5.65158662e-05, -6.89352746e-05, 3.89035049e-05,
          1.53909878e-05, 1.91419667e-06, 1.48925646e-05, 2.56507425e-04,
          1.20719989e-04, 4.03333470e-05, 6.77408316e-05,
          -8.55880717e-05, -4.17527626e-05, -9.24978940e-06,
          -1.40647498e-05, -8.98799044e-06 ]
      - [ -2.86861381e-04, -2.95859936e-04, 1.52453373e-04,
          8.62336747e-05, -4.58891387e-04, 8.77217462e-05,
          3.83657534e-05, 4.15164686e-05, 7.10271052e-05, 2.41860340e-04,
          5.40492532e-04, 2.72709527e-04, 1.86740333e-04, 3.10458527e-05,
          -2.47301796e-05, -2.16824381e-04, -1.96921290e-04,
          -2.44367810e-04, 3.24518041e-05, 1.58175244e-05,
          8.09368328e-04, 7.24957674e-04, 1.99287184e-04,
          -8.72391465e-05, 9.48844754e-05, 2.60510627e-04,
          -1.39552838e-04, -1.84610108e-04, 2.03708260e-04,
          8.85006273e-04, -4.30191212e-05, -3.36896017e-04,
          -3.73001123e-04, 1.71470587e-04, 4.57381930e-06,
          -3.24097316e-04, -1.32608275e-05, -1.91564832e-04,
          8.64799658e-05, -5.94300654e-05, -8.54935570e-05,
          -1.47976229e-04, -1.39287717e-04, -2.18831647e-05,
          -7.07824132e-04, -1.02782993e-04, -2.86872790e-04,
          3.02222834e-05, 5.85213711e-04, 4.75996749e-05, 2.69863322e-05,
          1.80551651e-05, -8.14622617e-05, -1.97241097e-05,
          -8.46396051e-06, 3.80547601e-04, 2.60240977e-05,
          1.49408952e-04, -1.34925591e-04, 1.88491002e-04,
          2.89193616e-04, 1.36846138e-04, -6.50659567e-05,
          -9.16183344e-05 ]
      - [ 1.05332372e-04, -6.86904150e-06, 3.16122569e-05,
          5.95772508e-05, -1.63395640e-07, 3.13230248e-06,
          1.90518369e-06, 3.26823283e-05, -1.06415619e-05,
          2.48978195e-05, 8.10157799e-05, 5.63694484e-05,
          -1.21890043e-04, -6.12314616e-05, -5.54426006e-05,
          -5.03403062e-05, 2.29594228e-08, -4.06515901e-05,
          -8.35452593e-05, -1.29994849e-04, 7.18913507e-05,
          7.39745665e-05, 4.82453870e-05, 2.54642164e-05,
          -3.02078442e-05, -1.41213632e-05, -7.27425004e-06,
          -1.60922355e-06, -3.28095921e-05, -1.77355321e-06,
          4.81368515e-05, 5.60859298e-05, -2.21584742e-05,
          -9.88233660e-06, -2.40860427e-05, -9.52413611e-05,
          -2.22900653e-05, 5.59703694e-05, 5.50415789e-05,
          1.36563453e-04, 3.51033814e-05, -1.09306693e-05,
          -1.39308340e-05, -3.11739132e-05, -5.64995134e-05,
          -1.89604289e-05, -2.08796464e-05, -1.19300194e-06,
          2.55518298e-05, -4.92229537e-06, -2.38195898e-05,
          -9.11395982e-05, 1.37891157e-05, -2.11130623e-06,
          1.55230900e-05, 1.43162863e-04, 4.31497247e-05, 4.72723877e-05,
          6.31650328e-05, -1.84729724e-05, -1.81574273e-04,
          -2.06141285e-05, -1.81625383e-05, -4.50476509e-05 ]
      - [ 1.37716552e-05, 5.26427129e-06, 2.69869724e-05,
          -5.05360149e-05, -1.53675210e-05, 4.49434083e-06,
          -8.41071710e-07, -2.10624312e-05, 7.08359380e-07,
          1.23337813e-05, 3.31120682e-05, 3.32936870e-05,
          -8.43781090e-05, -4.39487376e-05, -2.40170048e-05,
          -3.15073812e-05, -2.10296294e-05, -4.47834427e-05,
          -6.74756375e-05, -8.69034993e-05, 5.56361920e-05,
          2.66798634e-05, 2.09946229e-05, 9.59377758e-06, 2.05105171e-05,
          5.74237561e-07, -1.94404379e-07, 1.04610272e-05,
          8.88721988e-05, 2.94182810e-05, 4.24971913e-05, 2.08627825e-05,
          -4.70817486e-06, -1.58071325e-05, -2.57949432e-05,
          -2.27131794e-04, -7.51400585e-05, 5.50493023e-05,
          3.96139258e-05, 1.49178479e-04, 4.07591251e-05,
          -1.39068572e-06, -3.93433311e-07, -3.43846955e-06,
          -2.79405576e-05, -1.87454625e-05, -1.72799428e-05,
          9.33219872e-06, 1.21374633e-05, 9.00992916e-08,
          -4.49679137e-05, -6.42871892e-05, 2.33812953e-05,
          2.95885741e-07, 8.97928021e-06, 1.04294988e-04, 3.04477726e-05,
          4.40342228e-05, 3.58448415e-05, 7.63611242e-05, 5.81925633e-05,
          -2.23700190e-05, -4.62479329e-06, -4.31194167e-05 ]
      - [ 6.36732730e-05, 4.06699519e-06, 2.65230410e-05,
          -2.33546725e-05, -3.42784188e-05, 2.85272904e-06,
          -1.82194424e-06, -8.63371461e-05, 8.13869628e-05,
          3.73347793e-05, 9.70843175e-05, 2.53429043e-05,
          -1.39869244e-05, -1.00482214e-06, 9.76063234e-07,
          -1.08245302e-04, -4.41075287e-07, 9.57516841e-06,
          -3.96426294e-05, -2.75045404e-05, 2.37146719e-06,
          9.40831887e-05, 6.32004012e-05, 8.28476004e-07,
          -2.27767214e-05, -2.41547350e-05, -1.88754384e-05,
          -6.09139606e-05, 2.77182298e-05, -4.71755448e-05,
          6.97255382e-05, -2.85408132e-05, 3.54817712e-05,
          -6.66448614e-06, 3.34133006e-06, -9.28216177e-05,
          -9.32929397e-05, -8.40683715e-05, 1.42666060e-04,
          2.26844786e-04, 1.41401324e-04, -1.29137698e-05,
          -6.58380377e-05, -2.26756572e-04, -8.89718940e-05,
          2.26745342e-05, 2.27255941e-06, 5.41461923e-05,
          -7.50249965e-05, -1.89717684e-05, -4.04546918e-05,
          6.78522556e-05, -1.21072851e-04, -1.61277727e-04,
          -9.38757003e-05, 6.13872107e-05, 4.40752137e-06,
          -2.57614302e-05, 1.51521972e-05, 1.13216920e-05,
          -1.34300819e-04, -2.12263440e-05, -4.88794140e-05,
          -7.28676750e-05 ]
      - [ -1.61435833e-04, 5.56726518e-05, 6.94054834e-05,
          1.20366902e-04, 8.35820465e-05, 8.85382178e-07, 7.45849547e-07,
          5.16760383e-06, -6.62048797e-06, 2.55117648e-05,
          6.12133226e-05, -2.97527386e-05, -1.27786145e-04,
          -4.33577952e-05, -3.00790580e-05, -4.95023887e-05,
          1.36677345e-05, -4.27837986e-05, -5.21245674e-05,
          -1.14732487e-04, -3.84380946e-05, 3.71089809e-05,
          1.27057465e-05, 4.54497858e-05, 2.95574737e-05,
          -2.74573949e-06, -2.50763583e-06, -2.22088624e-06,
          1.13124559e-04, 3.29923059e-05, 4.39525975e-05,
          -2.51112051e-05, 1.84928576e-05, 5.39170469e-06,
          9.46852268e-08, 2.73940186e-05, 1.02199963e-04, 5.28386590e-05,
          5.15241045e-05, -4.84415395e-05, -8.17275286e-05,
          -7.08607258e-05, -4.95061686e-05, -7.33780034e-05,
          6.72071037e-05, 4.40372314e-05, 3.24465036e-05,
          -6.85736950e-06, 4.17862066e-05, 3.22021624e-05,
          8.19709385e-05, -4.19640259e-07, -9.49799651e-05,
          -4.79066912e-05, -6.77664502e-05, 2.26187967e-05,
          -2.45988326e-06, 4.49324289e-05, 3.64896769e-05,
          5.19554123e-05, 1.77354850e-05, 1.71346903e-06,
          -4.77580215e-06, -1.37755314e-05 ]
      - [ 5.51826670e-05, 3.56449091e-05, 6.03996559e-05, 1.35031267e-04,
          1.09364468e-04, 1.19848237e-05, -4.76603827e-06,
          -6.43036110e-05, 2.44557996e-05, 8.38326378e-06,
          2.11355054e-05, 2.05185806e-05, 2.48170199e-05, 1.11496695e-06,
          2.36876690e-06, 4.49905237e-05, 1.07210464e-04, 2.35306834e-06,
          2.21740220e-06, 1.41149167e-05, -1.43902280e-05,
          -4.16350986e-06, 4.80942981e-06, 3.99034288e-05,
          1.68421593e-06, -5.90219724e-06, -1.30331246e-05,
          -5.39904286e-05, -1.86215519e-04, 5.85255611e-06,
          5.11106227e-05, 9.30475217e-05, -2.02804877e-05,
          3.84042369e-06, 2.19121534e-06, 2.40823883e-05, 1.09006694e-04,
          5.23035342e-05, 3.20559775e-05, -1.04501029e-04,
          -1.06198924e-04, -2.39958008e-05, -3.70973885e-06,
          3.58999750e-06, 2.48327779e-05, 5.12104780e-05, 2.22513063e-05,
          2.01356142e-05, 3.79496450e-05, 1.78842001e-05, 6.52141025e-05,
          -3.32579220e-05, 8.10268648e-06, 2.08330721e-06,
          -5.54966107e-07, -7.02752295e-05, -6.68829161e-05,
          -2.73077990e-06, -4.48065794e-06, -1.46742577e-05,
          -5.22614355e-05, 1.19660086e-07, -8.09812263e-06,
          -2.96281614e-05 ]
      - [ -2.15476393e-05, 2.52584141e-05, 4.34714166e-05,
          7.17387738e-05, 1.99386996e-05, 2.23134543e-06, 1.56505973e-06,
          -3.04157911e-05, 2.14421398e-05, -4.97434557e-05,
          -1.70203384e-05, 8.27775523e-07, -2.01090588e-05,
          -3.01903019e-05, -2.76552382e-05, -3.40769002e-05,
          8.33076137e-06, -9.63779603e-05, -6.67232671e-05,
          -6.17991236e-06, 1.93611650e-05, 1.17552981e-05,
          -2.40020545e-05, 2.76490900e-05, -1.21483163e-05,
          -1.49102334e-06, -2.50137646e-07, 7.90311151e-06,
          6.25014654e-05, 2.21834434e-05, 2.43694994e-05, 2.67715877e-05,
          -4.25465732e-05, -6.54067044e-05, -9.18485748e-05,
          3.46118977e-05, 3.52603929e-05, 4.32198867e-05, 2.40900208e-05,
          8.99991501e-05, -3.08769313e-06, -1.15484538e-04,
          -6.59687794e-05, -1.53830661e-05, 2.70180608e-05,
          1.35266000e-05, -5.46550582e-05, -3.70304861e-07,
          5.19539026e-05, -5.16632053e-06, -2.81720827e-06,
          -6.56662542e-06, -8.28513021e-06, -3.99429882e-05,
          -1.25631021e-04, 1.18218259e-05, 2.65579129e-05,
          2.95748305e-05, 3.24257126e-05, 5.12749903e-05, 6.14579085e-06,
          -1.57137367e-06, -1.20145152e-04, -5.15524662e-05 ]
      - [ -6.02714135e-05, 3.60603372e-05, 5.27218872e-05,
          8.63516325e-05, 1.52714783e-05, 1.52693701e-06,
          -2.27284730e-07, -4.50121070e-06, 2.35694115e-05,
          2.96247290e-05, 2.70106866e-05, 1.43096149e-05,
          -1.82432232e-05, -1.93416581e-05, -9.62789545e-06,
          -1.07887507e-04, 2.90427874e-06, 3.04540936e-06,
          -1.35640926e-06, -4.55370719e-06, -2.93651156e-05,
          2.71549870e-05, 2.99468938e-05, 2.39661531e-05, 3.70356997e-06,
          -1.29524813e-06, -1.42587581e-07, -8.62459710e-05,
          -6.62345847e-05, 8.32248315e-06, -1.44850063e-07,
          -7.55355723e-05, 2.41132529e-05, 2.48789524e-06,
          4.21787854e-06, 3.74633928e-05, 1.12750218e-04, 5.11627077e-05,
          5.43780989e-05, 8.72395030e-05, -7.46153955e-06,
          -2.27623082e-06, -5.62511241e-06, -1.83735096e-06,
          2.22873859e-05, 1.33417070e-05, 4.17327601e-06, 1.81002852e-05,
          -5.20710910e-06, 3.60179024e-06, 2.08424099e-05,
          2.14957126e-05, 3.01975592e-06, -1.39156589e-06,
          4.16146713e-06, 7.89656842e-05, 2.81640314e-05, 3.93621849e-05,
          3.55662778e-05, -6.95025155e-05, -1.67293474e-04,
          -1.90294541e-05, -4.22967196e-06, 7.76306194e-07 ]
      - [ 9.75105359e-05, 6.99336088e-05, 8.14459199e-05, 5.97852741e-05,
          1.10653973e-05, -1.20791137e-05, -7.96141285e-06,
          3.86699976e-05, -2.84332077e-06, -3.31136725e-05,
          2.69818502e-05, 1.28274478e-05, -1.66040409e-05,
          -8.00480047e-05, -1.57751914e-04, 1.23612830e-04,
          -9.90506087e-05, -1.72452092e-05, -8.35418541e-05,
          -5.01396462e-05, 3.01229866e-05, -1.57189479e-05,
          -6.48124342e-06, 8.44385613e-06, -1.52584353e-05,
          5.07010213e-07, 1.06651513e-07, 1.80846109e-05, 1.15552684e-04,
          4.58474933e-05, 5.48601201e-05, -2.53574326e-05,
          -5.48156531e-05, -1.17861091e-05, -1.36990911e-05,
          -7.28590840e-06, 7.73234060e-05, 4.33046189e-05,
          5.30102479e-05, 1.79245719e-04, 4.76091191e-05,
          -1.65118996e-04, -8.39566710e-05, -3.51588933e-05,
          5.16873042e-05, 1.78176397e-05, -1.11324543e-05,
          -1.08281183e-05, 6.42047962e-05, 1.66176669e-05,
          1.05113777e-05, -6.38711208e-05, -2.58289310e-05,
          -6.54059695e-05, -3.35633158e-05, -8.38702254e-05,
          -2.85702954e-05, 6.83292383e-05, 5.16248438e-05,
          6.53368988e-05, 4.30196415e-05, 1.68796635e-06,
          -5.30183684e-07, -4.11934416e-05 ]
      - [ 7.82805364e-05, 2.39248620e-05, 5.68861360e-05, 3.34033102e-05,
          2.09285317e-05, 4.94400001e-06, -9.32222974e-06,
          -3.94976269e-05, 9.46689215e-06, 2.44102830e-05,
          3.62213905e-05, 4.58929526e-06, 5.05665525e-07,
          -7.32720946e-05, -1.50022228e-04, -2.00260256e-05,
          -3.37545571e-05, -1.45375307e-05, -3.83043880e-05,
          -3.88538210e-05, 7.19420059e-05, -2.90700118e-05,
          -7.09199594e-05, 7.46422029e-06, 2.44784587e-05,
          -1.06629641e-05, 1.38464134e-06, 6.91082187e-06,
          8.86367925e-05, 2.89961372e-05, 1.69627019e-05, 1.46102411e-05,
          7.29731546e-05, -3.47999389e-06, 3.35368782e-07,
          2.42326078e-05, 9.87402091e-05, 4.12921436e-05, 4.66283745e-05,
          6.02210093e-05, -8.83391549e-05, -7.86530800e-05,
          -5.80211636e-05, -5.47819036e-05, 6.51329683e-05,
          1.56152582e-05, -4.66059864e-05, 3.17115591e-05,
          -7.09209417e-05, 1.21096427e-05, 2.74015874e-05,
          7.25401333e-06, 4.13278940e-06, -6.02759101e-05,
          -1.49391359e-04, 9.28441732e-05, 7.49374376e-05,
          4.98683585e-05, 2.14128195e-05, 2.32968487e-05, 1.29439168e-05,
          -7.93188974e-06, -1.82275517e-06, -2.54078918e-06 ]
      - [ 9.03155378e-05, 2.04429434e-05, 1.94387758e-05, 1.17925429e-05,
          -4.56668640e-05, -2.59199237e-06, 1.26987354e-08,
          5.83183864e-05, 8.15424391e-06, 1.06717380e-05, 3.26873778e-05,
          -8.15026124e-06, -5.52662241e-05, -5.64801958e-05,
          -4.73673645e-05, -2.60565776e-05, -5.97288235e-05,
          -5.82679240e-05, -2.35734660e-05, -5.03540105e-05,
          5.79390617e-05, 3.33384342e-05, 7.52546703e-06, 2.10787584e-05,
          -5.13883788e-06, -3.18841398e-06, -2.95085420e-06,
          -7.36624543e-07, 1.63864825e-04, 4.48970350e-05,
          4.38168900e-05, 2.23237003e-05, -2.57352003e-05,
          -1.21419334e-05, -5.86742608e-05, -2.34711930e-04,
          3.10233117e-05, 3.68951332e-05, 3.84966879e-05, 1.97817440e-04,
          -7.35148717e-07, -5.49899851e-05, -4.97396104e-05,
          -1.11428199e-04, -1.29931968e-05, 7.37424079e-06,
          1.80279653e-06, 1.81094838e-05, 3.84910454e-05, 1.71908941e-05,
          4.38271418e-05, -9.87453022e-05, 3.86061220e-05,
          -4.80954077e-06, 1.05278950e-05, 1.75582056e-04,
          3.71643109e-05, 4.95878339e-05, 6.89962762e-05, 1.12822549e-04,
          8.61643184e-06, -2.76838500e-06, -4.71167232e-06,
          -2.65030631e-05 ]
      - [ -2.01964998e-04, 1.82202901e-04, 1.60986514e-04,
          1.28161701e-04, -1.03240942e-04, 4.24805057e-06,
          -1.28405864e-05, 1.14242524e-04, 1.43285870e-04,
          -1.05735402e-04, 5.45766397e-06, -8.55811813e-05,
          -1.86710149e-05, 1.33543354e-05, 2.31486647e-05,
          -9.17070574e-05, 7.39533716e-05, -4.82013820e-06,
          7.85084922e-06, 8.95834000e-06, -1.35862632e-04,
          -3.14199024e-05, 5.75036502e-05, -2.51012716e-05,
          1.34801303e-04, -1.36804258e-04, -1.76068963e-04,
          -3.21902044e-04, 4.86641133e-04, 2.32341044e-04,
          1.70336178e-04, -3.20205072e-05, 1.22683356e-04,
          -8.90128103e-06, -1.00394600e-05, -5.25090800e-05,
          3.35951074e-04, -1.49283413e-04, -6.83317267e-05,
          -1.72287851e-04, -1.27677384e-04, -4.50472362e-05,
          -2.99041967e-05, -4.23694073e-05, 4.41310476e-05,
          -1.83373093e-04, 3.78989316e-05, 8.27306285e-05,
          -9.48378220e-05, 7.89209589e-05, 3.56007338e-04,
          8.45071409e-05, -8.93119723e-05, 2.37335462e-06,
          3.47475179e-05, 1.88166799e-04, 1.01448277e-04, 1.33840716e-04,
          9.98785545e-05, -4.80528630e-04, 1.32973248e-04,
          -2.12886175e-06, 2.38368401e-07, -3.47314672e-05 ]
      - [ -3.60548228e-07, -1.07242704e-05, -3.36334733e-06,
          -1.00457664e-05, -1.45735885e-05, -6.55147278e-06,
          -4.47439425e-06, -6.19750281e-05, 3.18455823e-05,
          5.00797887e-06, 2.08308356e-05, -6.56056454e-06,
          -2.61025143e-05, -4.49323852e-06, -2.51667061e-05,
          7.46930709e-06, -5.03621886e-05, -1.17742729e-05,
          -1.00233583e-05, 4.65174026e-06, 2.83508598e-05,
          -4.80037215e-06, -4.59359362e-05, 1.17262207e-05,
          -8.75129444e-06, -5.87877537e-07, -2.77549543e-06,
          1.05612235e-05, 3.54341792e-05, 1.92649168e-05, 2.15049204e-05,
          1.39481108e-06, -1.39696590e-06, -1.90089067e-05,
          -6.20593491e-05, -5.66359704e-05, -3.07267546e-05,
          1.00135276e-06, -1.26721598e-05, 6.59448779e-05,
          1.48799172e-05, -2.71098688e-05, -3.74777737e-05,
          -6.27421541e-05, -4.00063072e-05, -3.25950350e-05,
          -7.67522579e-06, 3.66353452e-05, -4.58743898e-06,
          -1.70792919e-06, 4.09987297e-06, 3.53966243e-05,
          8.58150452e-06, -4.06899853e-05, -1.54864989e-04,
          5.03089759e-05, 5.80384913e-05, 2.73029636e-05, 2.34610652e-05,
          3.92055772e-05, 2.15537129e-05, -4.66479469e-06,
          -1.20272176e-04, -8.13850274e-05 ]
      - [ 1.07174703e-04, -7.99919053e-06, 1.30659200e-05,
          -1.39121321e-05, -4.62980825e-05, -3.10134892e-05,
          -1.16723286e-05, -6.00603016e-05, 9.06070272e-05,
          9.55291671e-06, -1.42994068e-05, 4.43914473e-07,
          -8.22097645e-05, -3.87240325e-05, -3.48260473e-05,
          -2.28422632e-05, 6.55461918e-05, 3.34155902e-06,
          -3.54606914e-06, -4.11793590e-05, -1.42975521e-04,
          1.16780066e-05, 1.08514532e-05, 3.17786071e-05,
          -1.82509041e-06, -1.24294747e-05, -2.93834782e-05,
          -3.73632211e-05, -7.31785185e-05, -2.29189882e-05,
          3.49843613e-05, 3.53225805e-05, 9.16821591e-06,
          -1.82935073e-05, -1.18606040e-05, -7.41554250e-05,
          -7.31614928e-05, 4.65727135e-05, 5.82811590e-05,
          3.31851811e-06, 5.80331107e-06, -4.76346759e-06,
          8.92158994e-07, -2.85629631e-05, -1.01064958e-04,
          9.31413012e-07, -1.25370998e-05, 2.38944776e-05,
          6.49053545e-05, 2.35252246e-05, 7.09890173e-06, 1.11534746e-05,
          -8.05868913e-05, -4.95711938e-05, -5.34599567e-05,
          2.96431990e-05, -2.52471591e-06, -6.72998840e-06,
          2.78124280e-05, 2.41791349e-05, -8.78871942e-05,
          -2.17793568e-05, -2.27621713e-05, -3.42722233e-05 ]
      - [ 1.19315315e-04, 3.46938359e-05, 6.71522503e-05, 3.78188233e-05,
          -1.75559879e-04, -3.63560284e-05, -7.97830435e-05,
          -7.82706265e-05, 7.75855660e-05, 1.69826399e-05,
          3.04624955e-05, 3.93874070e-05, 1.32080922e-05, 2.03237573e-06,
          1.33275967e-06, -3.32426862e-05, 8.33727245e-05,
          2.93555559e-06, 1.99109445e-06, 1.50804681e-05, 1.08807819e-06,
          8.02232080e-07, 1.22996116e-05, 3.50127812e-06,
          -5.93589466e-05, 5.57293504e-07, 9.53152630e-06,
          4.26373954e-05, 8.72991950e-05, 3.65545966e-05, 5.96747705e-05,
          3.65086962e-05, -2.84419912e-06, -5.92897341e-05,
          -5.17384797e-05, -9.51052862e-05, -4.18149502e-05,
          4.41824814e-05, 1.36645049e-05, 1.22355923e-04,
          -2.45480896e-05, -3.68794304e-06, 5.41696963e-08,
          1.13220824e-06, -2.86746454e-05, 2.54984880e-05,
          1.96037017e-05, 9.79997712e-05, -2.93566009e-05,
          1.99886072e-05, 4.52811983e-05, 6.22243097e-05, 1.21682497e-05,
          -4.50455082e-06, -4.61073705e-06, -2.55153354e-05,
          2.91822034e-05, 5.58353604e-05, 4.93167281e-05, 3.48505964e-05,
          4.69830593e-05, 1.08467873e-06, -7.61093906e-06,
          -1.23310077e-04 ]
      - [ -1.70180560e-04, 8.62940578e-05, 1.29176246e-04,
          2.46440963e-04, 1.03835810e-04, 1.11857562e-05, 1.20982450e-05,
          -4.28022804e-06, 4.45600235e-05, 3.01960536e-05,
          7.21233737e-05, 8.22917646e-05, 5.06181641e-06,
          -9.16303452e-06, -1.38157711e-05, -9.90573390e-05,
          1.03127080e-04, 4.31410490e-06, 5.46136334e-06, 4.40072927e-06,
          -1.81645282e-06, 8.04938027e-05, 7.51599259e-07,
          4.20959350e-06, 5.05783864e-05, -3.21984930e-06,
          3.89048910e-06, -3.85708117e-05, -5.23436829e-05,
          5.39927460e-05, 8.95049880e-07, -1.99887381e-05,
          5.47030359e-05, 3.74839010e-06, 7.50831589e-07, 5.93595141e-05,
          2.14699568e-04, 1.07786145e-04, 9.36927609e-05,
          -1.33280075e-04, -1.32459507e-04, -8.28280099e-06,
          -6.93438733e-06, -1.10555312e-07, 8.50403376e-05,
          7.00042219e-05, 4.43032950e-05, -8.85520149e-06,
          -3.08970557e-05, 3.60780723e-05, 6.25946341e-05,
          8.19671732e-06, 4.98696136e-06, 4.58997147e-06, 5.13599934e-06,
          6.13328530e-06, -2.42500901e-05, -9.93961658e-06,
          5.69764779e-05, -4.64204677e-05, -1.31629677e-05,
          5.95634720e-06, 7.10955206e-08, 5.89496158e-05 ]
      - [ 5.39719549e-05, 1.97085647e-05, 2.54651113e-05, 3.78483237e-05,
          1.16635174e-05, -1.34858674e-05, -5.72336066e-05,
          -3.01588370e-05, -3.21311222e-06, -1.18998003e-06,
          8.91614218e-06, 8.62084744e-06, -1.45799586e-05,
          -2.73558053e-05, -8.27484837e-05, -8.86752823e-05,
          5.12856204e-05, -2.74130161e-06, 1.15595890e-06,
          4.88497381e-06, 1.80776408e-06, -5.74660680e-06,
          -4.12663721e-05, -3.62909122e-05, 1.42729850e-05,
          1.17507034e-06, 1.83687951e-06, 2.23451007e-05, 2.23022344e-05,
          1.41467117e-05, 1.80110801e-05, 2.14092051e-05,
          -6.78266952e-05, -1.63303321e-05, 1.43212810e-06,
          3.67208522e-05, 3.72743707e-05, 2.00617960e-05, 1.27756539e-05,
          7.10325985e-05, -5.37263841e-05, -4.11530200e-05,
          -8.67708059e-06, -8.99216957e-06, 1.44477362e-05,
          1.00941350e-06, -3.46474044e-05, 2.87947641e-05,
          -6.69484007e-06, -6.82540194e-05, 6.27577674e-06,
          8.37290827e-06, -1.41591863e-06, -1.64676367e-05,
          -5.09047604e-05, 5.78316940e-05, 6.65181578e-05,
          2.00049599e-05, 1.38559381e-05, 1.69627820e-05, 2.64563423e-05,
          3.70321118e-06, 1.26084174e-07, -2.76414867e-05 ]
      - [ 6.87361753e-05, 3.21948683e-05, 1.99812530e-05, 5.29994468e-05,
          -1.41437577e-05, 2.02510842e-06, -9.63391431e-05,
          -2.26829361e-05, 2.69901939e-05, -2.70367423e-07,
          1.49088837e-05, 1.34633010e-05, 7.67754682e-06,
          -2.20496781e-06, -3.09832940e-05, 9.53285144e-06,
          6.52582821e-05, 2.32314824e-06, -4.84334705e-05,
          -3.93848677e-05, 1.32678160e-05, 1.02696197e-06,
          1.22230279e-06, -2.14516081e-06, -7.37530740e-07,
          -1.10764908e-04, -1.72982800e-05, 1.87225191e-06,
          4.09644999e-05, 1.80342795e-05, 2.33540977e-05, 6.53044408e-05,
          3.81071004e-05, -1.16638068e-04, -5.18433517e-05,
          3.40848987e-06, 1.81207088e-05, 2.99282055e-05, 3.10351170e-05,
          1.04618404e-04, -1.78462851e-05, -3.13059209e-05,
          -3.23427776e-05, -8.98081908e-06, 2.89641412e-06,
          6.56461771e-06, 1.10103738e-05, 4.09883687e-05,
          -3.81599239e-06, -3.11221993e-05, 2.64879600e-05,
          2.82234760e-06, 6.32878118e-06, -1.05419404e-05,
          -2.57548913e-06, 6.62387101e-05, -2.03234458e-06,
          2.01132007e-05, 2.30244696e-05, 3.01822547e-05,
          -6.47376237e-06, 0., -5.99077284e-05, -9.15898490e-05 ]
      - [ 7.49911414e-05, 2.31599479e-05, 3.72490213e-05, 6.04397173e-05,
          7.60340617e-06, -3.43419706e-05, -1.02670769e-04,
          -4.69928455e-06, 6.98247386e-05, -1.70079568e-06,
          8.79723211e-06, 3.95900679e-06, -2.81098255e-05,
          -4.90354869e-05, -3.92807087e-05, 2.53569124e-05,
          4.99014168e-05, -8.75994814e-08, 1.37600080e-06,
          1.87397404e-06, 4.50511379e-06, 6.16738862e-06,
          -1.79365470e-05, -7.31063483e-05, -2.62609665e-05,
          -1.96537513e-07, 2.89358786e-06, 6.26754627e-06,
          5.43930000e-05, 1.90273804e-05, 2.61165042e-05, 5.15213214e-05,
          9.09832124e-06, -9.16913923e-05, -2.26136854e-05,
          1.47364963e-05, 3.56998062e-05, 2.93813664e-05, 2.69162465e-05,
          1.09010492e-04, -1.24897888e-05, -3.47565474e-05,
          -5.63892172e-05, -5.11495346e-05, -2.07448975e-05,
          1.12209382e-05, 5.58225338e-06, 7.51628686e-05,
          -2.20768306e-05, -2.02859410e-05, 2.43767099e-05,
          1.30812778e-05, 8.72608780e-06, -1.18103401e-07,
          1.94972790e-06, 7.00442179e-05, 5.14468557e-05, 2.86290688e-05,
          2.38796038e-05, 4.23393758e-05, 2.93813209e-05, 2.91682363e-06,
          -2.52444579e-06, -6.95364215e-05 ]
      - [ 1.30864410e-05, 7.47845525e-06, 8.48464788e-06,
          -3.79842750e-05, -2.49605764e-05, -3.13645342e-06,
          -4.44057468e-06, -1.15619614e-05, 5.89426691e-06,
          -3.89861680e-06, -2.52400750e-05, 7.25889868e-06,
          3.97944348e-07, -1.74897110e-08, -4.28127493e-07,
          7.04346849e-06, 2.54904007e-05, -2.87602361e-05,
          -4.29322936e-05, 3.16989713e-06, 9.58034980e-06,
          7.61336150e-06, 6.61585000e-06, 8.86545604e-06,
          -1.23229063e-06, -5.23528179e-05, -5.70800876e-05,
          6.33886339e-06, -3.34618790e-06, 7.24572965e-06,
          1.50472933e-05, 1.55911275e-05, 6.01483498e-06,
          -5.01794384e-05, -3.83838997e-05, -2.61631376e-05,
          1.17196782e-06, 4.98385862e-06, 1.53239453e-05, 2.01640160e-05,
          1.28753554e-05, -3.85909771e-05, -3.50307237e-05,
          -1.03499515e-05, -4.57217493e-06, 1.30628241e-05,
          1.33303793e-05, 1.77146012e-06, 1.76442845e-05,
          -4.19044482e-05, -9.60335547e-06, 3.85430667e-06,
          4.00560793e-06, -3.21653204e-07, 4.21591210e-07,
          1.40075990e-05, -2.42083820e-06, -2.23298980e-06,
          3.78178743e-06, -4.55114878e-06, -3.85080493e-05,
          -6.04363595e-06, -4.57820488e-06, -2.99258681e-06 ]
      - [ -1.50126571e-05, -1.40692273e-05, -4.95962850e-05,
          -2.50730573e-05, 7.98098995e-07, 1.11651298e-05,
          2.36329561e-06, 2.53509079e-05, 2.25387539e-05,
          -3.85520289e-05, -6.87618231e-05, -3.57601130e-06,
          5.54781172e-06, -4.42992996e-06, 3.97465328e-07,
          7.24552638e-06, -2.89787313e-05, -2.53204616e-05,
          -1.54682002e-05, -3.49051079e-05, -4.77620006e-06,
          -1.59860338e-05, -1.03868751e-05, 1.34689726e-05,
          -1.10968303e-05, -6.94753689e-05, -2.52210048e-05,
          2.97340684e-05, -1.70377625e-05, -1.02001723e-05,
          -2.05427000e-06, 1.10532537e-05, -9.78595290e-06,
          -3.52282186e-05, -2.36200613e-05, -8.05348373e-06,
          -1.15977091e-05, -2.19050216e-05, -3.16270416e-06,
          -6.49267747e-07, -1.60025847e-05, -6.61413796e-05,
          -1.09585490e-05, 4.09480253e-06, -1.30135859e-05,
          -2.64675182e-05, -3.24980683e-05, -1.40065958e-05,
          3.18156744e-05, -8.76732884e-05, -2.13787662e-05,
          -6.50773873e-05, -8.07061133e-06, 2.23233792e-06,
          5.91517562e-07, 1.29455302e-05, 1.65929232e-05, 3.00354213e-06,
          8.83550570e-07, -4.92970066e-05, -2.61244186e-05,
          5.75313561e-06, 4.40165786e-06, 2.14530992e-05 ]
      - [ 1.43755915e-05, 2.20905122e-06, -3.88337176e-05,
          -1.38735326e-04, -2.63805214e-05, 1.93663018e-05,
          6.40768167e-06, 4.17033771e-05, 2.02232513e-05,
          -8.30211047e-06, -4.29198262e-05, -3.73325311e-05,
          9.93382287e-07, -1.30212914e-06, -5.75697982e-07,
          1.34237243e-05, 6.81794791e-06, -5.30529690e-07,
          -2.15796399e-06, -8.25852294e-06, -2.94790352e-05,
          -3.63542567e-05, -2.75297498e-05, 4.15458744e-05,
          2.49991735e-05, 3.49218476e-06, 2.55054929e-05,
          -6.42462646e-06, -1.54855748e-04, -4.83479307e-05,
          -1.07877777e-05, 2.95396294e-05, 3.68456713e-05,
          3.67334223e-06, 6.43812371e-07, -5.76429047e-05,
          -7.00098244e-05, -4.20849319e-05, -3.10168616e-05,
          1.77091206e-05, 9.34357445e-07, -2.14908923e-05,
          -6.04475317e-05, -3.61120692e-05, -2.07553549e-05,
          -2.85400292e-05, -2.97228362e-05, -2.11611905e-06,
          -9.22898380e-06, -1.29235568e-05, -2.07916328e-05,
          6.15487295e-07, -3.29663053e-05, -4.12560112e-05,
          -3.65118212e-05, -9.36006290e-06, 3.50298387e-06,
          -2.99315943e-05, -2.66208353e-05, -4.60876763e-05,
          5.59989621e-06, 2.26256579e-05, 1.89408584e-05,
          -2.26081943e-06 ]
      - [ -1.93422220e-05, 7.56653526e-06, 6.51424580e-06,
          -3.05121102e-06, 4.23118072e-05, 6.94264018e-05,
          4.84867487e-05, 2.06530094e-05, 6.24869645e-05,
          -2.31587474e-04, -7.83547293e-05, 1.22506572e-05,
          1.01192181e-05, -1.32444734e-06, 2.76830770e-06,
          1.45691083e-05, 1.61829303e-05, -9.26150606e-05,
          -5.14632957e-05, -7.71934356e-05, -1.66139635e-05,
          -5.56193572e-06, -6.52706058e-06, -1.56055321e-05,
          -3.68869732e-05, -1.07699969e-04, -5.48323123e-06,
          4.67931241e-05, -2.80505847e-05, -1.02059550e-06,
          -8.16385727e-06, 3.11277654e-05, 1.16711162e-05,
          5.88035391e-06, -9.42623501e-07, -1.40620969e-05,
          6.45450609e-06, -6.28360840e-06, 7.60003650e-06,
          4.70220293e-05, 4.82008036e-05, -1.24087615e-04,
          -5.18177985e-05, 9.24037408e-07, 2.60115867e-05,
          3.34328834e-05, 2.11144334e-06, -3.48478511e-06,
          -2.72627130e-06, -2.63480706e-05, -5.15945285e-05,
          -5.71998316e-06, -1.04328683e-05, -2.51593156e-05,
          -2.09297741e-05, -1.31476245e-05, -3.41478080e-05,
          -3.06937909e-05, -1.17217942e-05, -8.53916663e-06,
          4.40287913e-05, 4.71923959e-05, 3.28913702e-05, 2.93973676e-06 ]
      - [ -6.19500634e-06, -1.25286861e-05, -1.28730198e-05,
          -9.13710683e-05, -1.46598240e-05, 1.30816215e-05,
          5.57778640e-06, 4.25768303e-06, 2.87995645e-05, 3.50348159e-06,
          1.61702962e-06, -7.10731956e-06, -3.33170974e-05,
          -1.80778497e-05, -1.35255414e-05, -1.13622655e-05,
          -1.96134915e-05, -1.96336805e-06, -3.60223521e-06,
          -3.64765547e-05, -3.29113318e-05, -8.72881992e-06,
          -3.57449494e-06, 5.33849161e-05, 2.36633459e-05,
          1.93112282e-06, 4.44306261e-06, -1.05568665e-06,
          -6.75450501e-05, -1.62831784e-05, -1.75976140e-06,
          3.11930035e-06, 3.21520383e-05, -4.77980620e-07,
          -2.34832146e-06, -7.26477374e-05, -6.74080875e-05,
          -1.43975822e-05, -1.29683349e-05, -1.83703287e-06,
          9.49909281e-06, -4.71415115e-06, -4.10526468e-07,
          -8.93990182e-06, -9.44528074e-05, -1.82417425e-05,
          -1.08643935e-05, 3.32995296e-05, -5.79171729e-06,
          -6.34861317e-06, -9.62943705e-06, 3.76840467e-06,
          -1.27808676e-06, -4.73216869e-06, -1.39352478e-05,
          -5.41256013e-05, 1.44635897e-06, -5.14646899e-06,
          -9.86768737e-06, -2.07063695e-05, 2.76387345e-06,
          9.36012657e-06, 6.82008022e-06, 1.80103757e-06 ]
      - [ -6.23137021e-05, -8.97098107e-06, -3.00080646e-05,
          -7.89702244e-05, 3.60623017e-05, 5.77474602e-05,
          4.36778428e-05, 2.20545553e-05, -1.85428962e-05,
          7.15836768e-06, -1.13677424e-05, -4.56692906e-05,
          -9.26034481e-05, -2.42213682e-05, -7.95795950e-06,
          5.58979627e-06, -6.56702541e-05, -2.24167961e-05,
          -2.21096798e-05, -9.72914495e-05, 7.72676970e-07,
          -2.77205381e-05, 7.04817785e-06, -2.22110111e-06,
          2.37070453e-05, 1.27533995e-05, 2.09739956e-05, 1.41262562e-05,
          -6.35350443e-05, -2.84450743e-05, -2.62977283e-05,
          1.06813450e-05, 5.56307823e-05, -3.46818524e-06,
          -7.79543370e-06, -8.07011311e-05, -1.58577910e-04,
          -2.99281273e-05, 8.24441770e-07, 1.30014296e-05,
          3.75980380e-05, 2.91071865e-06, 9.50181686e-07,
          -4.04103121e-05, -1.88173246e-04, -1.55985927e-05,
          -6.16169154e-06, 3.86697975e-05, -2.57912870e-05,
          -1.25964334e-06, -2.02922583e-05, 3.43917736e-06,
          -2.74519498e-05, -2.78341267e-05, -3.01860891e-05,
          8.81624055e-06, -1.93910728e-06, -2.53941926e-05,
          -3.04917612e-05, -3.74048832e-05, 6.03881972e-06,
          1.30260912e-06, 2.34214076e-05, -5.17026128e-05 ]
      - [ -6.14134979e-06, -4.44501165e-06, 1.41177752e-05,
          -1.54575740e-04, -4.21178011e-05, 3.99431119e-05,
          1.80469524e-05, 6.09262133e-05, 6.30282375e-05,
          -9.73541682e-05, -9.32622640e-07, 1.90293952e-06,
          -1.90166224e-06, 5.36328493e-08, -4.56892622e-07,
          1.88266768e-05, -3.67384237e-05, -5.54384496e-05,
          -6.63871788e-06, -5.08929702e-07, -7.91084767e-06,
          -1.11587342e-05, 3.43240595e-06, 5.21977490e-05,
          -3.61350590e-06, -4.71433850e-05, 7.51067491e-05,
          1.43304773e-04, 3.26802001e-05, 1.63450877e-05, 7.49753508e-06,
          3.48050235e-05, 5.70386546e-05, -1.25781153e-04,
          -9.33412375e-05, -9.39521269e-05, -3.68714245e-05,
          -1.17917361e-05, -1.38020159e-05, 3.66268578e-05,
          7.94652151e-05, -1.36531409e-04, -2.95494483e-05,
          -2.58113755e-06, -1.25885645e-05, 4.65934363e-06,
          9.33611318e-06, 1.55588350e-05, -7.51243497e-05,
          -8.15356398e-05, -1.71227584e-05, 1.29892885e-06,
          8.08234836e-06, -3.24213545e-07, -2.13239460e-07,
          -1.91378294e-05, -1.02118327e-04, 7.09333017e-06,
          1.11896888e-05, 3.09102979e-05, 7.00159726e-05, 5.22057853e-05,
          4.09407730e-05, -5.10155701e-07 ]
      - [ -1.72223408e-05, -3.54917211e-05, -8.95894482e-05,
          -1.21983816e-04, 8.59432475e-05, 1.15253424e-04,
          3.36833546e-05, 4.71702697e-05, -2.52658556e-05,
          -1.53043152e-06, -3.43030370e-05, -3.74605370e-05,
          -1.52855268e-04, -6.26794426e-05, -5.64283218e-05,
          1.66487371e-05, -4.92865511e-05, -6.26307155e-05,
          -8.51483201e-05, -1.23183898e-04, 4.20021461e-05,
          -2.15906493e-05, -1.57989653e-05, 7.41773983e-05,
          -2.14960310e-05, 1.53662768e-05, 6.69088549e-05,
          5.12783590e-05, -4.37516755e-05, -3.76569697e-05,
          -6.63314495e-05, -7.67112851e-06, 9.04740082e-05,
          -2.74668273e-05, -1.51177219e-05, -1.22699203e-04,
          -6.62175225e-05, -7.06859064e-05, -7.57579910e-05,
          8.63210080e-05, 4.82043288e-05, -9.14558332e-05,
          -9.20277671e-05, -8.84659166e-05, -4.91140490e-05,
          -3.39097533e-05, -1.45133590e-05, -8.23556002e-06,
          -2.26787997e-05, -1.52204329e-05, -7.39497918e-05,
          2.81963694e-05, -7.50207837e-05, -1.04397150e-04,
          -7.87345780e-05, -6.67606510e-05, -1.72948476e-05,
          -3.22469750e-05, -7.92474384e-05, -2.89502241e-05,
          1.08214317e-05, 7.92696446e-05, 3.24360190e-05,
          -4.86123827e-05 ]
      - [ -6.36648329e-05, -2.67686755e-05, -3.73863877e-05,
          -5.99080340e-05, 2.79538017e-05, 4.54344918e-05,
          3.60225786e-05, 4.53169559e-06, -4.77912799e-05,
          2.03817253e-05, -4.97279907e-05, -3.14484532e-05,
          -5.65452974e-05, -3.87126202e-05, -4.21327677e-05,
          -2.72243251e-05, -2.11080328e-06, -1.71835939e-06,
          -3.86534111e-06, -3.29982249e-05, -1.52971872e-04,
          -3.06090915e-05, 7.98525616e-06, 2.94419751e-05,
          2.58300915e-05, 1.08704062e-05, 1.84118544e-05,
          -1.06205271e-05, -2.02645228e-04, -1.79355138e-05,
          -1.03837488e-06, 7.52657797e-05, 1.59416915e-04,
          1.93585561e-06, 3.33778559e-07, -3.48179747e-05,
          -7.57488961e-05, -1.68732167e-05, -3.48353969e-05,
          -4.67003920e-05, -1.33924304e-05, -4.24828795e-05,
          -5.76276070e-05, -8.07854813e-05, -1.35140217e-05,
          3.11209487e-06, -3.85303747e-06, -2.51200636e-05,
          8.14424584e-06, -1.10619440e-05, -3.10168398e-05,
          2.97778661e-06, -3.84758096e-05, -3.82015278e-05,
          -2.82212368e-05, -1.38213036e-05, -3.09825482e-05,
          -1.97768659e-05, -2.56836265e-05, -4.78924885e-05,
          6.90054876e-05, 5.93975965e-05, 4.39523683e-05, 1.46858401e-05 ]
      - [ -1.78259561e-05, -2.85554165e-06, -7.12969177e-06,
          -4.10353596e-06, 7.45680882e-05, 7.49592073e-05,
          1.64364337e-05, 5.97408398e-05, -7.31796608e-05,
          -1.79037408e-04, -1.25104157e-06, -1.16415414e-07,
          -2.56815238e-05, -2.75248385e-06, -1.36039198e-05,
          2.21992595e-05, -1.71941705e-04, -4.44154794e-05,
          -7.77472160e-05, -8.63526511e-05, 2.72219495e-05,
          -3.30184048e-05, -4.35693910e-05, 6.99454831e-05,
          -3.03954930e-05, -6.94695482e-05, 2.97590832e-05,
          9.10963354e-05, -2.90949301e-05, -2.65045837e-05,
          -3.68892979e-05, -1.16714443e-06, 3.83139959e-05,
          5.13678742e-06, -6.07968332e-06, -7.03142996e-06,
          -7.85097200e-06, 5.15143847e-06, -2.84220732e-06,
          9.10513263e-05, 7.53560016e-05, -1.13743988e-06,
          -3.83035939e-07, 1.21231551e-07, -7.64661308e-06,
          6.50034599e-06, -3.03007364e-05, -3.28775895e-05,
          7.70521074e-05, -1.55158250e-05, -3.85580233e-06,
          2.22436893e-06, 1.55021753e-05, -5.34827050e-05,
          -5.50725490e-05, -4.59416078e-05, -1.62543074e-05,
          -1.12055786e-05, -1.46117118e-05, 6.18416323e-08,
          6.04396737e-05, 4.19840762e-05, -1.61995158e-05,
          -5.69685726e-05 ]
      - [ 7.10197637e-05, -6.60617079e-05, -3.73818693e-05,
          -1.14075985e-04, 1.83538155e-04, 1.75809444e-04,
          9.72032649e-05, -5.56573214e-05, 4.58569339e-05,
          3.50764567e-05, -2.95975260e-05, 1.33698188e-06,
          -2.80879409e-04, -8.41684523e-05, -8.58016429e-05,
          -7.82392090e-05, -7.90261183e-05, -7.74546861e-05,
          -3.16009864e-05, -2.44746159e-04, 1.10736637e-05,
          2.54125939e-06, -9.55173709e-06, -2.31192389e-05,
          1.52672092e-05, 3.83641891e-05, 6.74693583e-05, 5.57835483e-05,
          -1.45998201e-04, -3.93080663e-05, -3.14333447e-05,
          3.78759541e-05, 8.91405434e-05, -2.83417576e-05,
          -3.72682771e-05, -3.99728960e-05, -6.93487309e-05,
          -1.71578758e-05, -7.96455424e-05, 6.61961676e-05,
          5.35059844e-05, -2.21320370e-05, -1.87971309e-04,
          -8.62102534e-05, -1.26702042e-04, -4.73073997e-05,
          -1.47218107e-05, 4.77779031e-05, -1.21762940e-04,
          -4.29210340e-05, -5.93701152e-05, 5.12123115e-05,
          -1.85313584e-05, -4.88448022e-05, -7.14628113e-05,
          4.86738863e-05, -2.27313776e-05, -1.91153940e-05,
          -5.03939445e-05, -4.50428415e-05, 1.47045925e-04,
          8.20920832e-05, -9.08179300e-06, -6.37062249e-06 ]
      - [ -4.57564311e-05, -2.27634901e-05, -2.83770587e-05,
          -5.94409030e-05, 4.87368961e-05, 4.36702685e-05,
          2.62997019e-05, 7.30439715e-05, 1.77994680e-05,
          -5.41426698e-06, -1.11835898e-05, -3.94515773e-05,
          -2.15947257e-05, 8.96593377e-08, 2.51702090e-06,
          -2.80084369e-05, -5.56242121e-05, -6.76245327e-06,
          -8.44621354e-07, 4.01798206e-06, 1.38123487e-05,
          -9.48595698e-06, -9.96533890e-06, 2.89979944e-05,
          8.08096302e-05, 1.80206553e-05, 2.09848367e-05, 2.57188840e-05,
          -1.62378274e-05, -2.65417802e-05, -1.10861811e-05,
          -3.02686403e-05, -9.96498511e-06, -1.68359023e-07,
          -5.38144195e-06, -7.36779184e-05, -1.56676659e-04,
          -8.60420641e-06, 1.23677353e-06, 6.61289741e-05,
          2.58439741e-05, 4.65581735e-07, -3.36238941e-07,
          -1.15800708e-06, -1.48589161e-05, 4.91894298e-06,
          4.50387461e-06, 1.92383905e-05, -2.49913046e-05,
          -1.00085299e-05, -3.13363780e-05, -2.23934239e-05,
          -1.06877924e-05, -3.47494705e-07, 2.16512220e-07,
          1.75883415e-05, 2.70879518e-05, 3.26360180e-07,
          -1.39805952e-05, -1.25535837e-04, 2.07837456e-05,
          2.18241657e-05, 2.16932167e-05, 4.00455974e-05 ]
      - [ -1.11701898e-04, -4.33631030e-05, -6.20936335e-05,
          -1.39845230e-04, 7.71589475e-05, 7.36723741e-05,
          4.33425885e-05, 1.09549558e-06, -3.67874673e-05,
          -6.36492450e-06, -1.34923721e-06, 2.89377913e-05,
          -1.46613420e-05, 2.30891965e-06, 1.86722100e-05,
          -1.34459318e-04, -1.53141198e-04, -1.19536617e-05,
          7.62878756e-07, 9.62063268e-07, -1.39182193e-05,
          1.07019605e-06, -6.54713767e-06, -2.13796593e-05,
          1.49696250e-04, 3.61301682e-05, 2.69052689e-05,
          -2.60697252e-05, -8.85349509e-05, -3.36371158e-05,
          -5.39830580e-05, -1.22186684e-05, 2.74545218e-05,
          4.40893018e-06, -1.46277216e-06, -4.08225605e-05,
          -1.48115229e-04, -4.36682931e-05, -5.41892987e-05,
          -6.46542103e-05, -7.31688197e-05, -3.70435191e-06,
          -2.72005832e-06, 1.32704490e-05, -7.10425520e-05,
          -3.64545303e-05, -4.00156277e-05, -5.67147581e-05,
          -6.19209241e-05, -6.90965244e-05, -6.39941209e-05,
          -2.98366995e-05, -1.36452309e-05, 2.08894653e-06,
          1.60869217e-06, -1.11599664e-04, -6.16416364e-05,
          -3.72527393e-05, -6.21427243e-05, -7.01608660e-05,
          2.70496985e-05, 5.32910526e-05, 2.51883125e-06, 7.95244705e-05 ]
      - [ -5.29109566e-05, -1.21608809e-05, -2.37660133e-05,
          -5.60209664e-05, 4.61619420e-05, 5.16353612e-05,
          3.66149579e-05, 6.08380615e-05, -4.02182559e-05,
          4.02404197e-07, 8.68178418e-08, 4.59009698e-06,
          -9.35217540e-05, -4.71361891e-05, -1.93897085e-05,
          -2.39637502e-05, -7.59141622e-05, -2.64319915e-05,
          -4.83651202e-05, -7.30856409e-05, 2.60554989e-05,
          1.99821284e-06, -5.11897588e-06, -5.78092568e-06,
          3.33573807e-05, 2.09337541e-05, 3.26541667e-05, 2.90833068e-05,
          -5.82512366e-05, -2.75690945e-05, -9.93049071e-06,
          3.91341655e-06, 2.56783842e-05, -5.03200545e-06,
          -6.30638669e-06, -8.94989280e-05, -1.17322365e-04,
          4.35314945e-07, 1.76642163e-06, 4.90198217e-05, 2.56882540e-05,
          1.18695716e-07, -1.30496198e-06, -7.92895935e-06,
          -4.96321190e-05, -2.98101168e-06, -6.54899509e-07,
          4.74859226e-05, 6.07912216e-06, -1.97148802e-05,
          -1.75297100e-05, -5.46940028e-05, 6.21746040e-06,
          -1.44187112e-07, -7.52868118e-07, 9.36077413e-06,
          7.40700261e-06, 4.16575676e-06, 1.37723688e-07,
          -1.05849314e-04, -1.50042715e-05, 2.47497246e-05,
          3.23717068e-05, 9.62517106e-07 ]
      - [ -6.31605581e-05, -1.73352510e-05, -8.10418624e-06,
          -7.96205932e-05, 3.86927713e-05, 5.24581446e-05,
          2.92728018e-05, 2.93892990e-05, -4.00434183e-05,
          -1.08822906e-06, 1.99585543e-06, -1.95497014e-05,
          -8.36775798e-05, -2.67967334e-05, -2.08118654e-05,
          -1.84632481e-05, -5.89975207e-05, -2.39907313e-05,
          -5.04140226e-05, -8.20913629e-05, -3.54659574e-06,
          1.57939382e-06, 4.21814229e-06, 1.75513342e-05, 1.97160152e-05,
          1.38531541e-05, 1.77556922e-05, 3.14991339e-05, 1.36996532e-05,
          -2.68920462e-06, 8.62393972e-06, 6.32830779e-06,
          5.77782048e-05, -1.61254229e-05, -1.90326919e-05,
          -2.41664849e-04, -8.70732110e-05, 3.08763106e-06,
          -2.61229798e-06, 2.60366014e-05, 3.20376166e-05,
          -1.23493032e-06, 1.96893851e-07, -1.78894356e-06,
          -3.81734535e-05, -2.04479566e-05, -3.20795243e-06,
          3.15976868e-05, -4.11326437e-06, -1.11265408e-05,
          -5.09759338e-05, -1.53190540e-05, 1.88569775e-05,
          1.22328140e-06, 6.41217355e-07, 3.09253264e-05, 2.84476278e-06,
          -4.09871564e-06, 1.70030501e-06, 7.08122843e-06,
          3.61894818e-05, 1.59029551e-05, 1.14001050e-05,
          -3.50815353e-05 ]
      - [ -6.21035870e-05, -2.67147643e-05, -3.52161878e-05,
          -6.95732015e-05, 6.43131498e-05, 6.18125487e-05,
          4.27347295e-05, -4.92335585e-06, -5.35072759e-05,
          -1.97680478e-07, -3.82968210e-05, -2.60472825e-05,
          -1.84763485e-05, -2.61592231e-06, 3.63959725e-06,
          -7.83769938e-05, 2.33348192e-06, -1.53004919e-06,
          -5.14449937e-07, -1.23285254e-05, -9.34928630e-06,
          -2.50983303e-05, -5.11476865e-05, -1.04431656e-05,
          3.78280638e-05, 6.76381342e-06, 1.93180967e-05, 6.52991866e-06,
          -2.07042867e-05, -3.78087716e-05, -3.34524484e-05,
          -2.75099137e-05, 8.14821251e-05, -1.10417723e-05,
          -1.48122990e-05, -1.48339546e-04, -1.97256086e-04,
          -2.84710113e-05, 2.31981358e-06, 5.60689514e-05,
          6.64141553e-05, 5.59540194e-06, 1.33077197e-06,
          -9.02250249e-05, -4.36024457e-05, -4.67845894e-06,
          -2.98645355e-05, 4.30602231e-05, -9.23935804e-05,
          -8.93886317e-06, -7.98393739e-06, 7.78945378e-06,
          -5.11294311e-05, -5.04149102e-05, -2.73977912e-05,
          -4.10102803e-05, 2.12507621e-05, -2.12301766e-05,
          -5.59975415e-05, -7.39292300e-05, -1.13298302e-05,
          1.33919220e-05, -6.96920279e-06, -5.70930497e-05 ]
      - [ -9.88894899e-05, 4.66015535e-07, 3.33051207e-06,
          5.78135769e-06, 5.50004843e-05, 4.37715789e-05, 1.26984824e-05,
          5.82710709e-05, -5.96354539e-06, -2.17044862e-06,
          -1.84409453e-06, -3.31767442e-05, -7.78494286e-05,
          -2.78657626e-05, -1.57820832e-05, -5.80743726e-05,
          -9.14919292e-05, -2.73514161e-05, -3.38835489e-05,
          -7.78598260e-05, -6.26876499e-05, -7.80035771e-06,
          -8.63881894e-07, 4.31056869e-05, 1.43867846e-05,
          1.04424598e-05, 1.90404244e-05, 1.72434666e-05, 1.57130617e-05,
          8.83677876e-06, 1.43823227e-05, -2.94369893e-05,
          1.10288238e-04, 3.82147306e-07, -5.06562287e-07,
          -7.26146084e-07, 4.58255926e-07, 1.64473875e-06,
          -6.35207834e-06, -7.23910343e-05, -4.90767052e-05,
          -2.94582969e-05, -2.19982467e-05, -5.06053693e-05,
          -2.15374912e-05, -1.86377042e-06, -7.46710782e-07,
          -3.69167574e-05, 2.12214727e-05, -3.20531490e-06,
          1.26512964e-06, -2.13143012e-05, -5.31525620e-05,
          -2.91760807e-05, -4.23303281e-05, -4.55722220e-05,
          -5.84179725e-05, -5.61843251e-07, 9.76387128e-06,
          2.99563203e-06, 5.54418220e-05, 3.78802433e-05, 2.57972692e-06,
          2.49222612e-05 ]
      - [ 2.97517890e-05, 4.93245079e-06, 4.40094254e-06, 3.41567502e-05,
          7.29778403e-05, 4.28471285e-05, -1.34287086e-06,
          2.15728505e-05, -1.08720478e-05, 1.47219077e-06,
          -1.31043441e-06, 3.72982395e-05, 7.11764926e-07,
          2.53051468e-07, 2.72457697e-07, 1.83354005e-05, 7.39387951e-06,
          -1.49950085e-06, -9.98379960e-07, -2.38438770e-06,
          -1.54834015e-05, -3.25997353e-05, -1.47841156e-05,
          4.34697313e-06, 6.46612534e-05, 5.78922118e-06, 4.32244233e-05,
          1.64932646e-06, -2.86072667e-04, -5.33558741e-05,
          1.96995497e-05, 4.05229621e-05, 3.73537114e-05, 9.07612139e-06,
          4.21663344e-06, 1.41997759e-06, 5.00606366e-05, 1.40479178e-05,
          -4.71900330e-06, -8.73136305e-05, -1.66333484e-05,
          1.69371708e-06, -1.07044877e-06, 2.05905653e-05,
          7.95180426e-07, 7.30551574e-06, -1.91319650e-05,
          1.84519595e-05, -3.48008216e-05, -1.44667683e-05,
          -6.70971986e-06, -4.79929331e-05, -3.29163470e-07,
          -4.92889330e-06, -1.27904786e-05, -1.52789493e-04,
          -6.76775016e-05, -2.45360043e-05, -6.91677051e-05,
          -5.49738797e-05, 3.87668988e-05, 2.36335582e-05,
          2.14384800e-05, 7.43069104e-05 ]
      - [ -9.48125453e-05, 4.53965231e-06, 9.60894522e-06,
          1.05973313e-05, 6.66503547e-05, 4.75605957e-05, 2.62324957e-05,
          2.02495594e-05, -4.47404955e-06, -6.59482612e-05,
          -4.91763567e-05, 9.01742112e-07, -3.10089526e-05,
          -2.69322645e-05, -2.52890513e-05, -6.10822462e-05,
          -8.21026115e-05, -9.86527666e-05, -5.53228419e-05,
          -1.99346505e-05, 2.04517718e-07, -1.19298293e-05,
          -2.15144373e-05, 7.37791834e-06, -2.09514765e-05,
          1.43536008e-05, 2.11946990e-05, 3.90583446e-05, 1.78224072e-05,
          7.99263307e-06, 1.24084254e-05, 4.52711683e-05, 5.50958321e-05,
          -5.93187033e-05, -7.57740054e-05, -1.21985465e-06,
          -2.55306641e-05, 3.77342803e-06, -8.91685033e-07,
          1.56674178e-05, 3.98462544e-06, -1.20300720e-04,
          -3.61637904e-05, -1.73178069e-05, 3.53533346e-06,
          -3.57140664e-07, -3.33810895e-05, 2.76535084e-05,
          5.21975344e-05, -1.47840756e-05, -2.60209199e-05,
          5.34416631e-06, 6.16492514e-07, -2.94654310e-05,
          -9.80781333e-05, -5.07411241e-05, 2.18105415e-05,
          3.19934247e-06, 6.08884329e-06, 8.12944290e-06, 2.60020352e-05,
          3.34158976e-05, -8.37733605e-05, 1.55514444e-05 ]
      - [ -4.04374368e-05, 6.11974838e-06, 1.23778309e-05,
          1.06828684e-05, 8.08906843e-05, 3.64830921e-05, 1.56318783e-05,
          1.05395029e-05, -6.88567297e-06, -1.54976976e-06,
          -2.10794497e-06, -1.25014221e-05, -8.44984879e-06,
          -5.96903601e-06, -5.50451978e-06, -1.26885949e-04,
          -1.21873109e-05, -1.11115560e-06, -1.15075636e-06,
          -1.01780472e-07, -5.14640260e-06, -3.43474335e-06,
          -1.49336820e-05, 2.77763338e-05, 1.02494960e-05,
          1.08840650e-05, 1.63286495e-05, -1.45896020e-05,
          -1.30528511e-04, -7.08798052e-06, -1.15358398e-05,
          -5.66837225e-05, 6.00712010e-05, 6.83992812e-06,
          1.69587224e-06, 1.49699792e-06, 2.81429539e-06, 1.57439865e-06,
          -1.21026045e-09, 3.64893021e-05, 8.11928021e-06,
          -8.46465724e-08, -7.53234474e-07, -6.27805832e-07,
          -2.84386419e-06, 1.80611096e-06, 3.64552147e-06,
          6.15742683e-05, 1.61057451e-05, -4.61462378e-07,
          -6.47243439e-07, -6.67640552e-06, -1.10405717e-05,
          -8.37439472e-07, -1.81847639e-08, 2.11997231e-05,
          8.41885412e-06, 1.94724930e-06, 1.21161270e-06,
          -8.68175848e-05, -1.56832539e-04, 3.68597426e-07,
          -6.96193047e-06, 6.47658890e-05 ]
      - [ 1.79000472e-05, 6.55160829e-06, 1.21208558e-07,
          -1.48319568e-05, 1.14542519e-04, 6.60288788e-05,
          3.19362589e-05, 5.51638768e-05, -1.69064460e-05,
          -3.04393525e-05, -8.63082914e-06, 4.67116151e-05,
          -1.77442143e-05, -5.98928891e-05, -1.35709022e-04,
          4.67393475e-05, -1.62490804e-04, -2.81847442e-05,
          -4.45157311e-05, -4.68575745e-05, -1.63432469e-05,
          -3.34043070e-05, -2.29807256e-06, 5.11080871e-05,
          -4.23325719e-06, 1.83641023e-05, 2.06032364e-05,
          3.70078742e-05, 1.86016259e-05, 1.05678691e-05, 6.82995324e-06,
          -3.61523889e-05, 8.61229128e-05, 3.86427502e-07,
          -6.66933283e-06, -1.41401770e-05, -2.12578489e-05,
          -1.07150363e-05, 8.22900972e-07, 5.34777537e-05,
          3.48153117e-06, -1.27574152e-04, -4.21050245e-05,
          -2.60776087e-05, -2.14811353e-05, -1.22911233e-05,
          1.01385638e-06, -9.89375440e-06, 1.83200518e-05,
          -2.22687613e-05, -3.20968393e-05, -6.99806787e-06,
          -4.07017126e-07, -5.02252587e-05, -3.56736091e-05,
          -1.63098215e-04, -5.37871747e-05, 5.48955484e-07,
          7.46645401e-06, 1.14042095e-05, 5.57832973e-05, 3.88910448e-05,
          1.64501489e-05, 1.41966966e-05 ]
      - [ 7.38554309e-06, 3.84583745e-06, 8.30615409e-06, 1.08579197e-05,
          7.65245859e-05, 4.26772094e-05, 1.70687035e-05, 2.07085141e-05,
          -2.42984333e-05, -3.53137443e-06, -3.33215553e-06,
          1.62923043e-05, -2.08054316e-05, -6.26103429e-05,
          -1.51372122e-04, -3.65932323e-07, -1.52440974e-04,
          -2.80241693e-05, -2.11106435e-05, -2.77354939e-05,
          -2.22666367e-05, -4.90657949e-05, -4.75758134e-05,
          -2.39667206e-05, 5.46041774e-05, 1.80358675e-05,
          2.15978835e-05, 5.74901642e-05, 1.41042729e-05, 1.01759603e-07,
          1.09102602e-05, 2.80332788e-05, 5.53283571e-05, 5.58908641e-06,
          8.30181989e-07, 8.73568922e-07, 1.14450804e-05, 6.20793071e-06,
          -6.13165275e-06, -3.39310645e-06, -8.64282774e-05,
          -3.25214132e-05, -1.69384730e-05, -1.70811600e-05,
          -2.10441794e-05, -1.56110491e-05, -4.61253076e-05,
          5.45342846e-06, -2.56019557e-05, -1.01975902e-05,
          -9.05927209e-06, 2.37269269e-05, -1.49417665e-05,
          -6.67423883e-05, -1.25412043e-04, 2.21831724e-05,
          3.67579996e-05, 3.35195250e-06, -4.05510627e-06,
          -3.17718468e-06, 3.76989483e-05, 1.51915501e-05,
          1.51976101e-05, 1.51252489e-05 ]
      - [ -6.43953972e-05, -1.91972613e-05, -2.45861866e-05,
          -9.43057312e-05, 5.68100622e-05, 1.10739013e-04,
          6.18051490e-05, 1.56388851e-04, -2.24190244e-05,
          7.89521346e-06, 2.31873764e-06, -4.61714699e-05,
          -7.50764593e-05, -2.78585903e-05, -3.41304549e-05,
          -4.57533206e-05, -1.35183465e-04, -5.75958329e-05,
          -2.35985572e-05, -4.88307996e-05, 3.44714608e-05,
          6.29414080e-06, 7.58381111e-06, 5.52477359e-05, 2.97485076e-05,
          4.55636182e-05, 5.56565683e-05, 5.48874814e-05, 3.70646667e-05,
          2.16112931e-05, -2.30821320e-06, -5.31648620e-05,
          2.28413955e-05, 5.70958855e-06, -4.06192266e-05,
          -1.82026924e-04, -6.53017487e-05, -2.53333164e-05,
          -4.08990709e-05, 5.23024210e-05, 3.83787119e-05,
          -3.69064292e-05, -3.89843626e-05, -6.66779233e-05,
          -4.48939390e-05, -5.61889055e-06, 1.90472674e-05,
          -3.28878887e-05, -2.95911764e-06, 2.06970412e-06,
          -1.34813199e-05, -7.80938572e-05, 1.73722874e-05,
          9.41169418e-08, -2.40146729e-08, 6.07149086e-05,
          1.09411912e-05, 2.78665175e-06, 1.01345267e-05, 2.42700171e-05,
          3.10951655e-05, 6.34383541e-05, 4.27402847e-05, 1.40214979e-05 ]
      - [ -9.40751997e-05, -3.64884545e-05, -4.09208333e-05,
          -1.20627927e-04, 3.07912160e-05, 4.47999591e-05,
          1.11867939e-05, 1.00046091e-04, 7.04963986e-06,
          -1.82224321e-05, -4.62107819e-05, -2.55020968e-05,
          -3.36726371e-05, 1.17630032e-06, 1.36912931e-05,
          -4.07449697e-05, -7.79558686e-05, -3.09378811e-06,
          -1.94051654e-06, -1.49000998e-05, -8.24005547e-05,
          -2.77973868e-05, -2.77851414e-05, 5.18063534e-05,
          1.54033100e-04, 5.00261604e-06, 8.05598665e-06,
          -5.55564729e-05, -1.85019271e-05, -2.10176713e-05,
          -1.58894509e-05, -3.49936709e-05, 6.32228111e-05,
          5.91939079e-06, 3.36671042e-06, -7.06320134e-05,
          -5.55568586e-05, -3.92092297e-05, -6.65329862e-05,
          -8.73395838e-05, 2.35765310e-05, 1.87214437e-06,
          -9.29078567e-07, -5.38321001e-06, -7.71084378e-05,
          -4.79668561e-05, -2.40548216e-05, -4.16922694e-06,
          -7.26948856e-05, -1.71334577e-05, -2.71448994e-06,
          -9.39274014e-06, -3.45995904e-05, -3.27402262e-07,
          -2.05260540e-06, -5.23193376e-05, -4.57422902e-05,
          -1.91193249e-05, -2.49212480e-05, -1.52045628e-04,
          8.04805823e-05, 4.84748853e-05, 1.63025306e-05, 5.94842822e-05 ]
      - [ 3.67793496e-06, -2.16105618e-05, -2.63794591e-05,
          -4.96002831e-05, 4.24675600e-05, 2.95256050e-05,
          3.43222637e-05, -1.34637112e-05, -3.54365438e-05,
          5.36496282e-06, -2.90954404e-06, -6.85662371e-06,
          -2.92178120e-05, -3.37759411e-05, -2.61960777e-05,
          -3.59645273e-05, -7.85345983e-05, -9.66152857e-06,
          -2.54759125e-05, -1.48332492e-05, 2.16560929e-05,
          -3.82242797e-05, -7.49872052e-05, 2.58748714e-05,
          1.03439315e-05, 1.98075631e-05, 1.97848367e-05, 3.81906575e-05,
          2.31272079e-05, 7.23071116e-06, -1.08653126e-06,
          6.47070237e-06, 3.46201414e-05, -4.39558135e-05,
          -4.26210790e-05, -7.16709692e-05, -5.53554346e-05,
          -2.36711221e-05, -4.35577858e-05, -2.10381750e-05,
          -1.92479888e-06, -3.08545168e-05, -2.99430994e-05,
          -4.36021328e-05, -6.71860544e-05, -3.12747288e-05,
          -1.78268801e-05, 1.29625614e-05, -1.43871539e-05,
          -4.76742525e-06, 6.58966082e-09, -2.91841866e-06,
          8.43653015e-06, -6.75848351e-05, -1.77899725e-04,
          1.07400574e-05, 7.27533643e-06, 1.92945572e-06, 3.31714659e-06,
          5.92965216e-06, 3.95256648e-05, 3.70247872e-05,
          -1.48623862e-04, -2.63340226e-05 ]
      - [ -1.43975576e-05, -2.04116332e-05, -1.48920471e-05,
          -4.97347901e-05, 2.71863951e-06, 2.76755782e-05,
          1.92854895e-05, -2.88023766e-05, 2.10963881e-05,
          1.19838724e-05, -3.13702617e-06, -2.82567112e-06,
          -8.86330236e-05, -1.67337676e-05, -1.05758827e-05,
          -4.75524976e-05, -3.34413053e-05, -1.72928480e-06,
          -1.88405772e-06, -2.62401063e-05, -1.09111556e-04,
          -1.31456072e-05, 5.54667577e-06, 1.14655832e-05,
          2.22769395e-05, -1.18538424e-07, 5.37558844e-06,
          3.14045633e-06, -7.98875844e-05, -1.33269677e-05,
          -2.47189496e-06, 4.15986005e-06, 5.68421819e-05,
          -8.29766668e-06, -6.13487236e-06, -5.31551523e-05,
          -1.10209476e-04, -2.95203154e-06, 1.07582116e-06,
          -1.29794516e-05, 5.07725304e-07, 1.34930110e-06,
          6.60530020e-07, -2.15402383e-06, -1.03571889e-04,
          1.20803807e-05, -2.24151972e-06, 5.14066551e-06,
          2.68945450e-06, -2.74366221e-06, -4.81781080e-06,
          8.05020318e-06, -6.22268853e-05, -1.83681277e-05,
          -4.01096331e-05, -1.67629551e-05, -5.07866889e-06,
          -2.15157233e-05, -1.24054186e-05, -1.52362259e-06,
          -5.23169074e-05, 9.11860934e-06, 1.92993011e-05,
          -1.13512015e-05 ]
      - [ 5.64851543e-05, -1.32866512e-06, 4.81871321e-05,
          -5.01348986e-05, -7.77922924e-06, 5.39099492e-05,
          -9.67981905e-05, -1.11611851e-04, -3.18210696e-05,
          -8.56584666e-06, -1.21644553e-05, 1.01458849e-04,
          -3.73572693e-05, 2.15047635e-06, 7.75855597e-07,
          -1.24897371e-04, -1.32325113e-05, -2.51756373e-05,
          -9.07805813e-08, -1.09608563e-05, -2.66892221e-05,
          -3.48037247e-06, -1.20581044e-05, -3.15491452e-05,
          4.26240695e-06, 5.82440116e-05, 5.81356944e-05, 1.23367412e-04,
          8.04090814e-05, 1.84493965e-05, 1.27086196e-06, 1.75471287e-04,
          1.20578909e-04, -1.29877881e-04, -1.25824794e-04,
          -4.20074502e-04, -1.74864123e-04, -2.12844930e-06,
          -1.80747902e-05, 1.03979946e-04, 8.91294185e-05,
          2.60741740e-06, 1.75980131e-06, -7.07506501e-07,
          -8.26792893e-05, 5.48574462e-06, -3.71244528e-06,
          1.63041404e-04, -1.20001998e-04, 1.18473981e-05,
          1.00622074e-05, 7.54951470e-05, 4.47586499e-05, 2.14578881e-06,
          9.13127133e-06, -4.15073555e-05, -3.53171390e-06,
          7.40697851e-06, 4.53700477e-06, 2.50628600e-05, 1.07059699e-04,
          5.43379938e-05, 3.92918737e-05, -1.07214444e-04 ]
      - [ -1.07490370e-04, 7.97927441e-06, 1.03587727e-05,
          6.67066843e-06, 9.69522953e-05, 6.65224652e-05, 1.63395034e-05,
          4.37808885e-05, -2.85992392e-05, -9.84830137e-08,
          -8.91674745e-07, -7.99339034e-07, -6.50666198e-06,
          2.17851789e-06, 2.15238815e-05, -1.29352615e-04,
          -5.94969169e-05, -8.44028762e-07, -9.77155878e-07,
          -9.69782923e-06, -7.91923740e-05, -1.43689876e-05,
          -1.62737178e-05, -2.57357951e-05, 1.32042696e-04,
          2.98380819e-05, 3.39173239e-05, 2.18582136e-05,
          -8.05485834e-05, -2.06528002e-05, -1.99336991e-05,
          -4.56731577e-05, 2.41851631e-05, 2.63717675e-06,
          2.83376289e-06, 7.64469974e-07, 2.50288849e-05, 7.84864551e-06,
          -1.48874778e-06, -1.32591696e-04, -9.63734856e-05,
          -5.75891249e-07, -8.26487212e-06, -1.57813520e-05,
          -1.37448351e-05, 1.36837423e-06, -2.15039506e-07,
          1.59806166e-06, -5.20394497e-05, -1.09555995e-05,
          -9.06535115e-06, -1.00290636e-05, -1.61855187e-05,
          -6.44019622e-07, 9.59628778e-07, -5.45751318e-05,
          -1.24337486e-04, -3.93916853e-05, -2.57015017e-05,
          -9.48683155e-05, 4.44912439e-05, 4.97205438e-05,
          5.66758172e-06, 7.10332897e-05 ]
      - [ 2.25527128e-05, 8.71833663e-07, 5.16677233e-07, 1.93996698e-06,
          6.33047530e-05, 1.84110340e-05, -1.25276438e-05,
          1.69197283e-05, -4.33125060e-05, -1.80692914e-05,
          -1.05809922e-05, 1.67105427e-05, -1.25615952e-05,
          -3.06177972e-05, -8.15433741e-05, -1.14559894e-04,
          -2.32909315e-05, -3.50444157e-06, 7.10668473e-06,
          1.03275388e-05, 1.11239879e-05, -6.11387077e-06,
          -4.67375430e-05, -6.07068469e-05, 6.56352640e-05,
          1.34273150e-05, 1.48073523e-05, 3.09822972e-05, 2.49128843e-05,
          2.73830142e-06, 1.05752372e-06, 1.15172925e-05,
          -1.91678228e-05, -1.15648472e-05, 3.21265748e-06,
          1.01393698e-06, 8.08135337e-06, 4.52268341e-06,
          -5.21392622e-07, 3.22102605e-05, -9.53228737e-05,
          -3.26383451e-05, -7.20312937e-06, -6.74235889e-06,
          -1.11203108e-05, -5.78121353e-06, -3.88169428e-05,
          -4.32549177e-06, -4.92567742e-05, -7.12786859e-05,
          -1.03401671e-05, 9.58251712e-06, 4.92060963e-06,
          -1.44271035e-05, -4.73304717e-05, -7.72513795e-06,
          1.00454145e-05, 4.15637260e-06, -9.40186112e-07,
          8.30421141e-06, 7.14695489e-05, 2.30536043e-05, 3.10268588e-05,
          1.58821877e-05 ]
      - [ 2.77031650e-05, 8.72938926e-07, -8.66226401e-07,
          -3.43400325e-06, 1.57655286e-05, 5.38685672e-05,
          -8.73057506e-05, 3.43058564e-05, 2.25480944e-05,
          -1.39006524e-05, -1.34833563e-05, -8.54570499e-06,
          -2.26198135e-05, -8.94846016e-06, -6.12007425e-05,
          9.70707697e-06, 3.32308059e-06, -1.88006434e-05,
          -8.43430462e-05, -5.84008667e-05, -1.70743933e-05,
          -1.28383890e-05, -1.07901269e-05, 5.13674931e-05,
          -9.99318559e-07, -1.40137272e-04, 8.58596104e-06,
          7.64038341e-05, 1.85806293e-05, 2.24853848e-05, 1.40833472e-05,
          2.96107410e-05, 7.51387051e-05, -1.87432786e-04,
          -7.10213280e-05, -3.46187619e-07, -3.04761452e-05,
          1.58234252e-06, -3.16217825e-06, 5.41420995e-05,
          1.41971159e-05, -5.75883059e-05, -4.69022816e-05,
          -1.82556796e-05, -1.56184215e-05, -1.70413241e-05,
          1.80817242e-05, 9.88621032e-05, 4.76840833e-05,
          -5.85237503e-05, -1.07053629e-05, -2.12226096e-05,
          -2.04772132e-05, -3.02073677e-05, -2.10671842e-05,
          1.62241704e-05, 1.33511476e-05, -5.28618284e-06,
          3.54818326e-06, 2.52499904e-05, 8.70318472e-05, 6.71109883e-05,
          -8.68671705e-05, -7.61932242e-05 ]
      - [ 2.21517712e-05, 8.16996908e-06, 2.30410642e-05, 1.38419027e-05,
          1.17143209e-04, -1.79396022e-06, -1.17554890e-04,
          6.49623234e-06, 9.69898247e-05, 2.44609669e-06, 1.83631596e-06,
          -3.22432174e-06, -8.61435037e-05, -7.30644824e-05,
          -6.16929901e-05, 5.47262607e-05, 3.53204923e-05,
          -1.09870325e-06, 1.02207457e-06, -3.33616572e-06,
          -6.45910040e-06, -4.75911520e-06, -4.65109842e-05,
          -1.02143596e-04, 1.89909370e-05, 1.73703465e-05,
          3.24311368e-05, 6.76614873e-05, 3.20821673e-05, 7.79907987e-06,
          8.32233673e-06, 9.62269041e-05, 1.94746517e-05,
          -1.51267013e-04, -2.42684982e-05, -3.96901896e-06,
          -1.97624940e-05, 1.37150016e-06, -5.68701989e-06,
          5.17460176e-05, 1.09825769e-05, -9.07563444e-05,
          -9.33425254e-05, -8.79954241e-05, -3.77151773e-05,
          -4.23089978e-06, 1.06428324e-05, 1.79295894e-04,
          -3.58990037e-05, -4.78466391e-05, -7.10720087e-07,
          2.30161950e-05, 7.40651558e-06, 1.46052821e-06,
          -1.48709421e-06, 1.63685545e-05, 5.95694473e-05,
          7.22361756e-06, 4.52235327e-06, 1.92753487e-05, 1.02631398e-04,
          4.62540957e-05, 1.18522667e-05, -3.78837358e-05 ]
      - [ -1.71359516e-05, -7.65030290e-06, -7.22765208e-06,
          -5.33254679e-05, -1.29008531e-05, 4.27235682e-06,
          -1.02690626e-06, 6.09629387e-06, 8.41795099e-06,
          -4.58207114e-06, -3.32554555e-05, -4.25608914e-06,
          -5.21889206e-06, 3.28547074e-08, -3.45901725e-07,
          4.55074485e-07, -5.08834455e-06, -1.96944147e-05,
          -3.51086455e-05, -4.20399772e-07, -7.65612128e-07,
          -2.56059451e-07, 6.39603215e-08, 1.17533136e-05,
          1.48644140e-05, -3.95870265e-05, -3.74256269e-05,
          1.32403875e-05, -2.25219956e-05, -1.97186159e-06,
          -1.00881493e-06, 3.24453777e-06, 9.56419171e-06,
          -3.72338509e-05, -2.89892632e-05, -2.76239643e-05,
          -1.89798066e-05, -5.06282913e-06, -4.74458238e-06,
          1.27861458e-05, 9.29643011e-06, -3.31582705e-05,
          -2.57352494e-05, -8.38585402e-06, -1.05997469e-05,
          -3.86080103e-07, 1.44814507e-07, 1.05106710e-05,
          1.52978300e-05, -4.64598197e-05, -2.60692541e-05,
          -4.27216264e-07, 4.93367736e-07, -1.52690674e-07,
          -1.99101848e-07, 1.78057917e-06, -1.39209669e-05,
          -1.16801757e-05, -1.19266160e-05, -1.56725873e-05,
          -2.41750822e-05, -4.46007618e-07, 4.17957352e-07,
          1.22315778e-05 ]
      - [ 1.94917830e-05, 1.10946748e-05, 1.11427153e-05,
          -4.17608608e-05, -2.93715857e-05, 2.53214353e-06,
          -1.02878994e-06, -1.77671136e-05, 5.52227732e-07,
          3.69949958e-05, 3.07849987e-05, -2.46449272e-05,
          -6.41884162e-06, 2.35007678e-06, -6.09844619e-07,
          -1.02406852e-06, 3.04327332e-05, 2.79066498e-05,
          1.45824870e-05, 3.12435550e-05, 3.43527499e-05, 5.71032160e-06,
          -4.27179748e-06, 1.97884378e-06, 3.33294665e-05,
          6.41779407e-05, 4.43988320e-05, -2.42413153e-05,
          -4.48239807e-05, -1.80218849e-05, 7.27173017e-07,
          -1.92466587e-06, 3.01417476e-05, 2.70557521e-05,
          2.55660798e-05, -2.18478108e-05, -3.35810801e-05,
          -2.49040932e-06, -1.03381672e-05, -7.83644555e-06,
          2.79247888e-05, 4.41951233e-05, -2.44479161e-05,
          -2.13617641e-05, 1.05235711e-06, 3.62134888e-05,
          7.46878732e-06, 1.64243702e-05, -1.98976340e-05,
          7.42900738e-05, 1.10043457e-05, 4.30709770e-05,
          -1.20761133e-05, -2.25489366e-05, -2.13698931e-05,
          -5.48960452e-05, -1.47817100e-05, -2.13355634e-05,
          -1.78374939e-05, 5.00885608e-06, 2.93004105e-05,
          9.71030931e-06, 3.02924491e-06, -2.23579827e-05 ]
      - [ -3.72614813e-05, 2.03073469e-05, 7.94973821e-05,
          2.84191774e-05, 4.07476182e-05, 1.25820161e-05, 2.39792480e-05,
          -2.62028734e-05, -9.68389304e-06, -6.75037445e-05,
          5.82979264e-05, 3.15184916e-05, 5.58154170e-06, 6.49916592e-06,
          -1.36723020e-06, -4.88617434e-06, 3.75464733e-05,
          -8.12302369e-06, 3.13200530e-06, -1.57565719e-05,
          -7.62942000e-06, 2.09020382e-05, 1.93255873e-05,
          -1.63565146e-05, 1.23051441e-05, 3.65616615e-05,
          1.69075793e-05, -1.18497182e-05, 1.45986223e-05,
          1.07793512e-05, -6.09331391e-06, -3.12290558e-06,
          3.41616105e-05, 6.29489587e-05, 2.74518407e-05, 5.57668227e-06,
          -2.20227048e-06, 3.34449978e-05, 7.58538681e-06,
          1.71583179e-05, 2.94402653e-05, -2.20648167e-06,
          -1.07733449e-05, -4.59391140e-06, 1.93498527e-05,
          7.71617852e-05, 4.96330613e-05, 3.87503278e-05,
          -2.33174815e-05, 1.19703604e-04, -1.18881917e-05,
          6.38367055e-05, -1.00439593e-05, -2.68132408e-05,
          -2.38480934e-05, -2.83933223e-05, -8.27441618e-05,
          -2.47024418e-05, -2.37548429e-05, 1.52723442e-05,
          6.46078843e-05, 1.25071501e-05, 7.89657497e-06,
          -2.89357467e-05 ]
      - [ 2.05112178e-06, 7.91925686e-07, 1.75103414e-05,
          -3.04048881e-05, -1.65461352e-05, 2.20614268e-07,
          3.56637884e-06, -2.83056761e-06, 1.20316017e-05,
          3.07669652e-05, 3.58256657e-05, -8.35182982e-06,
          -2.68250642e-05, -8.77705043e-06, -8.57714986e-06,
          -1.54441714e-05, 1.30075687e-05, 1.93753913e-05,
          6.00366320e-06, -6.68788471e-06, 1.10262745e-05,
          8.70227359e-06, 2.85357351e-06, 8.61052104e-06, 4.97882029e-05,
          4.15439499e-05, 2.77478794e-05, -6.08798018e-06,
          -3.05086614e-05, 3.24448729e-06, -1.84660223e-07,
          -1.99140486e-05, 4.42406235e-05, 1.91016079e-05,
          1.67618200e-05, -4.02618825e-05, -2.89893596e-05,
          9.23918833e-06, -1.88561353e-06, -1.24953822e-05,
          2.71504978e-05, 4.28229359e-05, 6.44164493e-06,
          -1.36493654e-05, -4.04452039e-05, 1.54742702e-05,
          3.93253276e-06, 3.13671298e-05, -7.25243399e-06,
          5.07604054e-05, 2.13777435e-06, 3.05526264e-05, 1.48059723e-06,
          -6.18091053e-06, -9.83773407e-06, -5.13054219e-05,
          -1.06419766e-05, -4.26041606e-06, -7.93807794e-06,
          1.10176316e-05, 2.78059488e-05, 2.35271591e-06, 5.18695197e-06,
          -8.87925853e-06 ]
      - [ -1.34967850e-05, 6.78922515e-06, 3.15133293e-05,
          -3.05550827e-07, 1.14363374e-05, 4.55910322e-06,
          1.04986566e-05, -6.16484613e-06, -2.27230048e-05,
          3.04046516e-05, 3.52764400e-05, -1.06473235e-05,
          -3.80755373e-05, -9.05682282e-06, -7.60068224e-06,
          -1.69063678e-05, 6.26890278e-06, 1.46524435e-05,
          -3.33554067e-06, 6.12356598e-06, 2.80967670e-05,
          2.19702201e-06, -1.52276755e-06, -1.31667832e-06,
          2.30924252e-05, 6.13435041e-05, 3.81447753e-05, 1.05023787e-06,
          -7.29493149e-06, 2.44659759e-06, -1.27306612e-05,
          -2.89840227e-05, 3.79513986e-05, 2.30389924e-05,
          1.65429792e-05, -2.50442226e-05, -3.31847259e-05,
          9.82870279e-06, 4.41725115e-06, 9.82427446e-06, 5.17474000e-05,
          6.23123851e-05, 6.19575349e-06, -2.32933053e-05,
          -4.83563490e-05, 3.16337682e-05, 1.86018933e-05,
          2.23542520e-05, -1.77626862e-05, 7.32073968e-05,
          5.49892957e-06, 5.03722695e-05, -1.37236621e-05,
          -1.45396853e-05, -1.06222797e-05, -1.93519445e-05,
          -2.52555365e-05, -1.15648236e-05, -1.19132228e-05,
          2.53520375e-05, 1.25584138e-05, -7.21531563e-08,
          3.84285158e-06, -4.96189132e-05 ]
      - [ 5.03176274e-08, 1.52389757e-05, 6.24241366e-05,
          -5.16596483e-05, -4.73113614e-05, 4.46572312e-06,
          1.79594590e-05, -7.64647939e-06, 1.79075323e-05,
          2.48831566e-06, 8.80628650e-05, -4.09500581e-06,
          -1.45307868e-05, 6.36078266e-06, 1.57519622e-07,
          -7.02786156e-06, 4.33530886e-06, 3.80516394e-06,
          2.25877266e-05, 3.42077074e-05, 6.73872200e-05, 1.56275182e-05,
          2.30412934e-05, 4.84718839e-06, -8.90312492e-07,
          3.34482029e-05, 4.45061669e-05, 3.57561191e-07, 4.61147101e-05,
          2.02800857e-05, 5.05637990e-06, 3.31397655e-06, 4.41116026e-05,
          -3.81890422e-05, -1.14115601e-05, 8.20304831e-06,
          -2.09172686e-05, 3.26305490e-05, 2.34353095e-07,
          1.13378856e-05, 5.35984254e-05, 5.30972211e-05, 7.37363735e-06,
          -1.58019463e-06, 3.12896958e-07, 6.72680471e-05,
          4.59601979e-05, 5.08010271e-05, -3.58385478e-05,
          1.94228214e-05, 8.05574928e-06, 7.35574431e-05, 4.21430814e-05,
          -5.27690463e-06, -9.23686855e-07, -1.54656445e-05,
          -1.58125622e-05, -5.28081591e-06, -4.44949038e-08,
          7.49282917e-05, 8.02611612e-05, 1.60133823e-05, 1.23588643e-05,
          5.33787841e-07 ]
      - [ 4.64022924e-06, 3.57677186e-06, 3.47101668e-05,
          -3.82632152e-06, 1.40698357e-05, 1.09606538e-06,
          3.74439333e-06, -2.36265223e-05, -3.00571228e-05,
          3.83132901e-05, 5.30070756e-05, -1.84601813e-05,
          -4.23684032e-05, -1.04347346e-05, -1.61526550e-05,
          -1.56127571e-05, 1.57658196e-05, 1.77940692e-05,
          1.59840067e-06, 1.33208268e-05, 2.73841015e-05, 8.47624324e-06,
          7.13370855e-06, -1.68782317e-05, 2.96766739e-05,
          7.31180917e-05, 4.06534637e-05, -4.70781060e-06,
          6.59187708e-06, 1.80687357e-06, -9.87209842e-06,
          -3.69205700e-05, 5.23746130e-05, 2.83111331e-05,
          2.32010188e-05, -1.53005403e-05, -1.60210875e-05,
          1.21167704e-05, -1.29742393e-05, 1.04381922e-06,
          4.14355127e-05, 5.56574560e-05, -9.59078170e-06,
          -2.81998618e-05, -6.03947683e-06, 3.26269619e-05,
          2.14688207e-05, 5.29041472e-06, -1.19817232e-05,
          9.20839811e-05, 3.16626029e-06, 5.80682026e-05,
          -8.87281112e-06, -2.25218300e-05, -1.80892057e-05,
          -4.12941990e-05, -2.81642006e-05, -1.11408117e-05,
          -1.54603622e-05, 3.46133493e-05, 3.72853428e-05,
          7.98169185e-06, 3.31601382e-06, -3.05573121e-05 ]
      - [ -2.04934277e-05, 1.57692091e-06, 3.70865891e-05,
          2.14775537e-06, 1.28698457e-05, -1.43666512e-06,
          9.00273426e-06, -3.08415219e-05, -1.22499287e-05,
          3.79510457e-05, 4.00729114e-05, -1.12915068e-05,
          -2.98708765e-05, -1.02269150e-05, -1.23886739e-05,
          -1.40800175e-05, 3.14366225e-05, 3.17739105e-05,
          1.59679348e-05, 1.53809215e-05, -2.57676820e-05,
          8.64458980e-06, 1.19822671e-05, 1.50087260e-06, 5.35555409e-05,
          7.49302853e-05, 3.55186457e-05, -2.54594161e-05,
          -3.93746850e-05, 1.00303641e-05, 2.84034900e-06,
          2.91126207e-06, 5.26092699e-05, 3.55113625e-05, 2.74217200e-05,
          -1.12768976e-05, -3.50756841e-06, 2.29144953e-05,
          9.86532200e-07, -1.76819558e-05, 2.63399488e-05,
          6.07095826e-05, -5.02511193e-06, -2.33557930e-05,
          4.16901003e-08, 4.22795601e-05, 2.30909918e-05, 1.84193177e-05,
          -1.96277142e-05, 8.25310708e-05, 9.62489594e-06,
          2.74225295e-05, -5.32901959e-06, -1.64139219e-05,
          -1.01015212e-05, -1.82082058e-05, -2.66382995e-05,
          -8.91890613e-06, -1.26318600e-05, 2.57766114e-05,
          4.91223727e-05, 1.01553496e-05, 9.21893115e-06,
          -3.74362253e-06 ]
      - [ -2.20102920e-05, 1.32379500e-05, 4.94003289e-05,
          2.53970029e-05, 2.07580324e-05, 6.98639633e-06, 1.55208363e-05,
          -1.62036067e-05, -4.94951237e-05, -5.62166024e-05,
          6.27219924e-05, 2.48200577e-05, -2.79662731e-06,
          5.42068074e-06, -1.61322248e-06, -1.24056930e-06,
          -2.05123124e-05, 6.66851292e-06, -1.61457342e-06,
          -1.47272140e-05, 2.66145562e-05, 1.39964532e-05,
          8.20911009e-06, 7.53702409e-07, 1.03280013e-06, 1.39478316e-05,
          4.06804902e-05, 9.15315650e-06, -1.09388679e-06,
          1.16352226e-06, -6.50620632e-06, -2.69702196e-06,
          5.16902655e-05, 3.82365361e-05, 1.63863351e-05,
          -1.01549867e-05, -4.87930492e-06, 1.16370220e-05,
          -2.65219637e-06, 9.07187587e-06, 3.44209548e-05,
          4.45500955e-05, 5.38943254e-07, -1.74712397e-06,
          6.61618515e-06, 4.16450748e-05, 8.05481613e-06,
          -4.55030458e-05, 1.36504866e-06, 7.77331079e-05,
          3.86900092e-06, 4.85510573e-05, -3.03926281e-05,
          -2.28534973e-05, -1.88458580e-05, -4.77350295e-05,
          -4.62196294e-05, -1.32433443e-05, -1.58745534e-05,
          1.74297311e-05, 2.22712406e-05, 7.05454931e-06,
          -6.50187258e-06, -4.43400022e-05 ]
      - [ -2.96777780e-05, -2.43537511e-06, 4.48340870e-05,
          6.88870114e-06, -1.51306665e-06, -2.60578474e-07,
          9.70672954e-06, -8.75168917e-06, -2.20377642e-05,
          5.05298049e-05, 6.04715642e-05, -1.52387320e-05,
          -5.11108228e-05, -5.80473215e-06, -1.71148113e-05,
          -2.18507048e-05, -1.54168404e-07, 9.62242393e-06,
          1.00096440e-05, 5.85815269e-06, 1.46451430e-05, 1.90103019e-05,
          -8.81250799e-07, -2.09898935e-05, 2.85858168e-05,
          7.58030001e-05, 5.05882963e-05, -3.18330240e-05,
          -2.87963994e-05, -9.60532489e-08, -1.04601531e-05,
          -3.46834786e-05, 4.67023492e-05, 1.99975202e-05,
          9.39153870e-06, -9.63060938e-06, 1.96409519e-06,
          2.17768738e-05, -1.03229977e-05, -4.77416324e-06,
          2.15550408e-05, 6.54580654e-05, -6.94581877e-06,
          -1.99255246e-05, -2.30079513e-06, 2.05901142e-05,
          1.53777873e-05, 1.45560971e-05, -3.03456036e-05,
          7.76393426e-05, 9.37172535e-06, 5.51071898e-05,
          -1.74431589e-05, -1.39294334e-05, -1.09931898e-05,
          -2.81479697e-05, -3.46350535e-05, -1.16085357e-05,
          -1.02843242e-05, 2.89112886e-05, 4.52742315e-05,
          -1.30745293e-05, -1.53964174e-05, -4.11617802e-05 ]
      - [ -3.02633689e-05, -7.25856125e-06, 1.97992576e-05,
          -1.57094146e-05, 1.69857831e-05, 5.13950181e-06,
          1.08946106e-05, -1.19338017e-06, 2.03461650e-06,
          3.30102921e-05, 3.60453523e-05, -1.81101277e-05,
          -1.64244902e-05, 4.18444597e-06, 1.10698764e-07,
          -1.59379397e-05, -1.33753329e-05, 1.93530650e-05,
          1.18977405e-05, 3.09839270e-05, 2.69661759e-05,
          -1.27837689e-06, 5.76984530e-06, -5.44188424e-06,
          5.49567994e-05, 6.39126083e-05, 3.10310279e-05, 1.15327725e-06,
          -9.26224311e-06, -6.97128326e-06, -1.28841612e-05,
          -3.99889504e-05, 1.29619011e-05, 2.02989268e-05,
          1.40341544e-05, -3.90191854e-05, -6.06748436e-05,
          1.74085762e-05, -1.70530814e-06, 1.44653977e-05,
          5.29490317e-05, 6.11403302e-05, 6.74484227e-06,
          -6.64180277e-07, 1.21794737e-05, 3.04320802e-05,
          2.07326011e-05, 2.00298491e-05, -2.25657295e-05,
          6.67724235e-05, -4.99295720e-06, 5.78663312e-05,
          1.70026260e-06, -4.92189201e-07, -3.15699026e-07,
          -8.82555071e-07, 2.21920254e-06, -6.71327143e-06,
          -1.09080656e-05, -1.13414026e-05, 4.89637614e-06,
          6.69525798e-06, 5.69566191e-06, -9.54292864e-06 ]
      - [ -4.80998096e-05, -3.64888615e-06, 2.41715406e-05,
          -2.90183971e-06, 8.69712494e-06, 4.72360989e-06,
          9.70695601e-06, 2.20693164e-06, -1.51424738e-05,
          2.91150136e-05, 5.02323855e-05, -4.63102970e-06,
          -5.34848004e-06, 3.79733842e-06, -1.38303324e-06,
          -2.20511374e-05, -2.51117817e-05, 1.34905995e-05,
          1.22419424e-05, 3.20874824e-05, 3.33122516e-05, 1.46740349e-05,
          6.80550647e-06, -3.16522915e-07, 3.82728285e-05,
          5.97865037e-05, 2.82772653e-05, -9.79855668e-06,
          -4.13992848e-06, 3.65519440e-07, -1.01451433e-05,
          -2.76475330e-05, 3.51548879e-05, 2.44384210e-05,
          1.72867785e-05, -7.05172670e-06, -2.76194187e-05,
          1.05709605e-05, -1.11962518e-05, -1.56805218e-05,
          -8.95301582e-07, 5.61216075e-05, 4.61927903e-06,
          -9.94007860e-06, -3.17457278e-07, 2.80428594e-05,
          1.30363087e-05, 1.37245224e-05, -2.11832830e-05,
          5.54395519e-05, 2.83703889e-06, 6.80739613e-05, 5.97909184e-06,
          -1.72961961e-07, -4.68241268e-07, -2.66394309e-05,
          -6.49975918e-05, -1.32910263e-05, -1.12174876e-05,
          3.44756554e-05, 3.60761005e-05, 8.23668688e-06, 5.76308912e-06,
          2.62172620e-07 ]
      - [ -3.20034414e-05, 7.49164428e-06, 3.79662270e-05,
          8.81945766e-07, 2.14412630e-05, 6.68836356e-06, 1.26469004e-05,
          1.92941843e-06, -2.60578727e-05, 3.88250774e-05,
          6.47818233e-05, -2.61156833e-06, -4.67156715e-05,
          -8.70188433e-06, -1.26018040e-05, -2.05886354e-05,
          -1.05024947e-05, 1.23889531e-05, -5.93394407e-06,
          2.96024905e-06, 3.11339863e-05, 1.49388516e-05, 8.60978980e-06,
          3.20276536e-06, 2.30115511e-05, 6.96961288e-05, 3.21640982e-05,
          -5.67087227e-06, -1.69485847e-05, -6.43199769e-07,
          -8.32821024e-06, -1.60900781e-05, 3.24923785e-05,
          2.45932588e-05, 1.39653530e-05, -4.59009680e-05,
          -3.39359540e-05, 2.62888152e-05, 3.76053003e-06,
          1.62309498e-05, 6.13690718e-05, 6.73587056e-05, 4.27692066e-06,
          -7.54575967e-06, -7.55897133e-07, 2.85740407e-05,
          2.28029294e-05, 3.90518835e-05, -8.19822162e-06,
          7.55630681e-05, 9.40146310e-06, 5.35309955e-05, 5.11899452e-06,
          -4.97951021e-07, -4.26563247e-07, -1.07086112e-06,
          -2.21846085e-06, -2.40361715e-07, -6.37747860e-07,
          -3.70699536e-06, -1.28951460e-05, 7.21159722e-06,
          4.74197714e-06, -1.97752361e-05 ]
      - [ -1.30271937e-05, -1.60649154e-06, 2.62628600e-05,
          -1.50544120e-05, 1.33913700e-05, 4.36553591e-06,
          8.76326249e-06, -1.81403502e-05, -2.37515269e-05,
          3.40281949e-05, 4.71349522e-05, 1.34248266e-05,
          -3.14253630e-05, -8.33012382e-06, -6.96518100e-06,
          -1.27693793e-05, -2.00220165e-05, 7.26076814e-06,
          -5.47971013e-06, -1.13287679e-05, 3.12516422e-05,
          1.36183362e-05, 6.96061170e-06, 2.52917630e-06, 2.79058022e-05,
          5.55866463e-05, 3.00949960e-05, 9.63456114e-06, 1.75677069e-05,
          9.97889401e-06, 1.68072532e-07, -1.69843497e-05,
          3.87892032e-05, 2.03500931e-05, 1.10348537e-05,
          -5.35601866e-05, -2.10098096e-05, 2.06671721e-05,
          4.12552026e-06, 2.51884558e-07, 4.51609485e-05, 5.29990357e-05,
          5.77517721e-06, -1.35332982e-06, 2.70282703e-06,
          2.76815335e-05, 1.52321581e-05, 2.15729960e-05, 6.33795764e-07,
          6.17139376e-05, 3.38487189e-06, 4.41928823e-05, 9.50872345e-06,
          -1.43323200e-06, -8.26901328e-07, -2.71854833e-06,
          -5.61452362e-06, -5.21083336e-07, 4.62909981e-07,
          5.06965043e-05, 3.67236571e-05, 5.09599431e-06, 5.68429959e-06,
          -2.19272224e-05 ]
      - [ -4.12811423e-05, -2.33135324e-06, 2.54883489e-05,
          -8.39543463e-06, 5.32713739e-06, 3.90814057e-06,
          8.64857611e-06, -2.18587411e-05, -6.18205377e-06,
          2.86260383e-05, 3.84406012e-05, 5.56615669e-06,
          -1.04565852e-05, 2.13798717e-06, -4.95901531e-07,
          -2.52312529e-05, -8.21278172e-06, 2.33136689e-05,
          5.85491580e-06, 1.99354072e-05, 1.59402789e-05, 5.06703191e-06,
          1.52083021e-06, -1.77819966e-05, 4.47264174e-05,
          5.68915420e-05, 2.85653077e-05, -8.12937287e-06,
          1.88142235e-06, -4.35987386e-06, -9.13171425e-06,
          -3.55328120e-05, 4.27622217e-05, 2.32056664e-05,
          1.76852191e-05, -9.95903974e-06, -4.20404758e-05,
          5.71004250e-07, 3.13867008e-06, 4.02150226e-06, 3.98902266e-05,
          5.62605019e-05, 3.64054154e-06, -2.24765736e-05,
          -1.43567650e-05, 3.28845708e-05, 1.42458639e-05,
          1.77547445e-05, -3.88160843e-05, 5.95032761e-05,
          1.59333104e-06, 5.28480014e-05, -7.24690926e-06,
          -1.31733577e-05, -9.51422862e-06, -2.37690565e-05,
          -1.67284634e-05, -1.60893032e-05, -1.15825660e-05,
          1.55766102e-05, 1.14952809e-06, 8.02154204e-07, 3.50886211e-07,
          -2.22737817e-05 ]
      - [ -4.17394622e-05, 7.63005210e-06, 3.00423872e-05,
          1.79147792e-05, 1.84624096e-05, 3.30851526e-06, 7.13480313e-06,
          -6.64155277e-06, -1.46871707e-05, 2.55810010e-05,
          3.76571661e-05, 4.08337115e-07, -3.22361957e-05,
          -6.82181826e-06, -1.14813120e-05, -3.23653549e-05,
          -2.15643686e-05, 7.67542224e-06, -1.51951201e-06,
          -5.95700203e-06, 1.35029350e-05, 8.73870340e-06,
          5.45931834e-06, 3.16621311e-07, 3.23090171e-05, 4.65061967e-05,
          2.38839075e-05, 6.88348678e-07, 1.39416652e-05, 6.92960612e-06,
          8.21843003e-07, -2.79146407e-05, 4.43527133e-05,
          1.95837183e-05, 1.53131696e-05, 5.31832575e-06, 1.20302402e-05,
          1.76053400e-05, 2.87146236e-06, -3.30857583e-05,
          -6.23052074e-06, 3.60250378e-05, -3.58021475e-06,
          -1.62229317e-05, 3.60398440e-06, 2.73340320e-05,
          1.48125209e-05, 9.87655767e-07, -1.27686981e-05,
          5.33436105e-05, 9.77160926e-06, 3.87730761e-05,
          -1.49213492e-05, -9.17877969e-06, -1.39782760e-05,
          -3.40737970e-05, -3.82746439e-05, -1.66522443e-06,
          4.09930777e-07, 3.67396096e-05, 3.12741613e-05, 5.88583407e-06,
          4.01555826e-06, -1.10634764e-05 ]
      - [ -1.50348649e-06, 9.16945919e-06, 3.46824309e-05,
          1.06346270e-05, 1.98049238e-05, 4.11853580e-06, 6.66399546e-06,
          -1.05120098e-05, 1.02097579e-06, 2.73110563e-05,
          4.71979984e-05, 6.41239058e-06, -1.77165120e-07,
          4.11411293e-06, 7.45953699e-08, -1.47953108e-06,
          1.86184225e-05, 1.78341688e-05, 1.20452223e-05, 2.20773309e-05,
          1.86171619e-05, 6.15873796e-06, 5.42393536e-06,
          -5.72210138e-06, 2.48722463e-05, 5.20367466e-05,
          1.96913606e-05, -2.02492774e-05, -5.64634356e-05,
          -5.13363784e-06, 1.67874703e-06, 4.14482065e-06,
          1.83357315e-05, 2.48515280e-05, 1.47293385e-05, 4.98313830e-06,
          9.43049417e-06, 1.86162706e-05, -1.00702982e-05,
          -5.03279771e-05, -1.46211632e-05, 4.90209204e-05,
